2405 128
489 -0.094478264 0.16266704 0.07277324 -0.020811543 0.023122711 -0.2578396 -0.00017134447 -0.09698008 -0.27404168 0.26632705 0.417208 -0.04200236 0.035284568 -0.071674146 -0.07574718 -0.08848507 -0.44673637 -0.0948019 0.15048847 -0.18004568 0.062101256 0.09201417 0.20972627 -0.22988681 -0.251096 -0.1484362 -0.03980576 0.18714744 0.015687488 0.067637116 0.13118772 -0.14053488 -0.24295053 -0.07146348 0.09648698 -0.17632611 -0.07339881 0.105323456 0.03510805 0.1974748 0.23212528 0.17416015 -0.033858616 0.11495044 0.037241023 0.037421536 -0.12081961 0.09101844 0.19556446 -0.08746935 0.003827587 -0.05600634 0.057185348 -0.18559518 0.17462276 -0.29711097 -0.032500252 -0.027705912 -0.072137535 0.4305218 0.05876098 0.17550966 -0.054516546 -0.24419275 0.110612415 -0.071919024 0.09748664 -0.25035778 -0.12070075 0.058637243 0.5123187 0.031779397 0.5715603 0.46918043 -0.29550058 0.25666603 -0.20800635 -0.43799523 0.11824448 0.11106464 0.12012612 -0.2191487 0.038877808 0.21024835 0.08084983 -0.061529953 -0.1526725 0.2862553 -0.41263136 -0.19271919 0.07729328 0.14411516 0.09069448 -0.049777985 0.13698567 -0.22483872 0.049447384 -0.12860718 0.265048 -0.12268854 0.005255071 -0.08309491 0.025275012 -0.45650235 0.09530849 0.06865705 0.15226805 0.013171861 -0.030473236 -0.6045146 0.22189026 0.00045652423 0.096173555 -0.15303303 0.04787927 0.02228622 0.0495614 -0.12761638 0.2551732 0.04732737 0.31985313 -0.16238804 -0.0017262782 0.10570469 0.231286 0.11167648 0.058102556 0.10369169
393 -0.20422646 0.57335 0.30471596 -0.20889537 -0.07984638 -0.027196832 0.4720092 0.036574125 -0.03514068 0.17162524 -0.09062615 -0.12882735 -0.2649133 -0.1379787 -0.055514578 -0.079631835 0.031988718 0.027667157 0.29544297 0.049267847 0.29392567 0.010821466 -0.028382758 2.0974394e-05 -0.03319367 -0.10418588 -0.06146507 -0.14667076 -0.325215 0.19921659 0.23695965 0.1216686 0.23991725 -0.122278914 0.1492182 -0.122781016 0.3459278 0.25753722 -0.004380838 0.098213315 -0.21159635 -0.059734847 -0.060965054 -0.07979115 -0.008000655 0.087486975 -0.0294274 0.27223974 0.27715275 -0.25397664 0.11951959 -0.059969578 -0.13031358 0.020955497 -0.1488846 -0.13750505 0.10388018 0.06193182 -0.03152911 -0.09340345 0.019335557 0.10746295 0.11844978 -0.027209159 0.18039894 0.20491679 -0.27542746 0.0035607642 0.06707254 0.033729862 0.0012827169 -0.17054322 0.052715264 -0.3007229 0.19770017 0.20828047 0.23477405 -0.57226473 0.086108364 0.06798028 -0.1366093 -0.09333558 -0.09521483 0.118995465 0.27595252 -0.30965966 0.007810922 -0.24920171 0.18348926 -0.28302547 0.004605399 -0.18042813 -0.10353616 0.033601817 0.16439292 0.033920273 -0.03382414 0.06618232 -0.24522239 -0.0155137405 0.2051692 0.09338904 -0.16328444 -0.07761247 0.25809732 -0.11211212 0.20339075 -0.32372892 -0.28631094 -0.31021652 0.14222947 -0.15848832 0.23043871 -0.053341202 -0.09447337 -0.11312765 0.26202616 -0.2983356 0.4921828 -0.08467611 0.18856789 0.23416638 0.14151698 -0.00029426327 0.10736543 -0.032676585 -0.23489647 0.2792915
445 0.16624479 0.22207287 0.0060715843 -0.046865992 0.20104675 -0.05861714 0.25220272 0.19775881 -0.04835961 0.19803864 -0.10502429 0.13048276 -0.107074715 -0.05036072 0.07331058 0.29544643 -0.37357908 0.25158122 0.016349027 -0.100471385 0.12365099 0.006844397 -0.25201136 -0.054217555 -0.18006496 -0.112460904 -0.16364278 -0.068176664 -0.13018364 0.13648453 0.070053 -0.2757442 -0.060463924 -0.31992054 -0.14853406 0.06259636 0.35063705 0.037765607 -0.019706035 -0.2123273 -0.15110326 0.3108717 -0.0026062024 -0.24697445 -0.0019123701 0.081481054 0.03721365 0.20827658 0.005652104 -0.014361627 -0.20231853 0.16202384 -0.18030985 0.02766499 0.047569904 -0.07763424 0.02981011 0.0412932 0.050493862 -0.10751695 -0.2986101 0.53322613 -0.101243734 0.1399128 -0.093269 -0.12669727 -0.16826215 -0.28039968 0.023932884 0.23016404 0.1739557 0.11130967 -0.13208818 0.37785488 0.16363949 0.32820988 -0.107192636 0.11226816 -0.10527706 -0.21137527 -0.17086883 0.053499714 0.11015361 0.07175376 -0.043032352 0.20429838 -0.08985061 -0.20512252 -0.10269226 -0.19833228 0.21192922 -0.16103469 -0.0018892646 0.15206091 0.2941067 -0.10293745 0.3476724 0.07192181 0.21590222 -0.06313784 -0.111815035 -0.07620534 0.13923886 -0.1532192 0.0008880993 0.2687212 -0.16992894 -0.07206744 -0.11766064 -0.41418606 -0.0010808504 -0.2006688 0.042219024 0.053973205 -0.09663519 -0.049413804 0.48717284 -0.23036505 0.39577058 0.15516153 0.318531 0.26864275 -0.0052525774 -0.4763732 -0.14339735 0.110403575 0.109387875 0.17157273
526 -0.03079179 0.172854 0.31266373 0.20860025 -0.28491053 -0.29514036 0.14105397 0.087026015 0.13308208 0.04822385 -0.03492799 -0.18975745 0.051947605 -0.1782349 0.16264708 -0.014750121 -0.31363878 0.2689307 0.261531 -0.015589005 -0.3641404 -0.075067 0.21591392 0.07802983 -0.14956427 -0.08736329 -0.01589617 -0.21355715 -0.07107807 0.26704535 0.13275056 -0.16860919 0.22196105 0.07293744 0.010085206 -0.3167411 -0.09039315 0.11497136 0.26756832 0.32837403 0.15787669 -0.02262564 0.31049088 0.099712946 -0.47607997 -0.23749647 0.50344914 0.18951954 0.051960886 -0.14557657 -0.10808902 0.00449862 -0.06563596 -0.056671657 0.09341628 0.26281083 -0.071787775 0.048959706 -0.16582136 -0.08666368 0.06603766 0.09635839 -0.20059778 -0.13926871 0.09390149 0.10203618 0.41183218 -0.21568425 0.07705496 0.15204129 0.06951194 -0.1270595 0.16115959 0.1418972 -0.322369 0.1091602 -0.036186304 -0.0753896 0.05825206 -0.020551085 -0.004847532 -0.39747226 0.16334826 -0.55971694 0.15538716 -0.25081238 -0.533358 0.22439916 0.026449874 0.13286397 -0.03746034 -0.32357544 -0.10128982 -0.41492757 -0.31828988 0.29514045 -0.08244501 0.3739559 0.27501944 -0.081295 -0.2691853 -0.018084371 0.12670231 -0.40122887 -0.12628423 0.26471278 -0.0889319 -0.038637005 0.4039712 -0.5322762 0.12580642 -0.085867964 -0.123031 -0.27124637 -0.00024377037 -0.1384724 0.5549098 -0.41866508 0.17442407 0.031617396 0.144372 0.08724693 0.03902164 0.16166 0.23682444 -0.3561841 0.07974466 -0.60307056
708 -0.27344936 0.0015114333 0.12546119 -0.19523412 -0.1278491 -0.26515177 -0.27835488 0.38006166 -0.41378385 -0.0841812 0.07406425 -0.08333418 -0.2678869 -0.09519621 0.11146479 0.03318804 -0.2608713 -0.15321572 -0.035746068 -0.17421243 0.108603835 0.44481218 -0.21338013 0.1818975 0.08237987 0.36481574 0.020834127 -0.07937647 -0.1335368 -0.116914265 0.548967 -0.4048768 0.10875231 -0.10319666 0.23615904 0.23153433 0.31323522 -0.14272763 0.15876825 0.25012496 0.25692093 0.045802977 0.06494061 -0.5798116 -0.11583088 -0.06368165 0.24660906 0.20474206 -0.19546464 -0.12218664 0.18954918 -0.27096003 -0.013146566 -0.10758881 -0.024191685 0.2152265 0.040427387 0.3094561 -0.14893001 0.30773255 0.21319747 -0.4196114 0.25492752 -0.07939613 0.049982525 -0.109175466 -0.23881283 -0.012830667 -0.30762523 -0.18629311 -0.15568052 -0.2816549 0.28846216 0.029623475 0.013969845 0.18356788 -0.07472925 -0.40950313 -0.09045683 -0.07168158 -0.2925421 0.066042736 0.29160073 -0.20443767 0.3443296 -0.3366425 -0.15462345 -0.29283705 0.103517465 -0.08937271 0.07761193 0.0029833873 0.16928688 0.34607798 0.21980497 0.39495727 0.40129527 0.11721937 -0.018300211 -0.2216346 0.18932036 -0.21843842 0.16853987 -0.26797482 -0.118796825 0.23331225 0.25022832 -0.21062565 -0.32397175 -0.22821179 0.1113363 -0.07476663 0.04400942 -0.17036507 -0.06725827 0.038647868 0.20090404 0.049691755 0.1081886 0.086331815 0.21772331 -0.18392962 0.10118846 -0.18047492 0.16048965 -0.0049341824 0.2607811 -0.005321217
1412 0.2171165 0.17406869 -0.060537416 0.36954492 -0.11134598 0.03769537 0.07270725 -0.14845489 -0.18603608 -0.17088763 -0.3328221 0.12649593 0.04372123 0.13444546 -0.05034023 -0.012075827 0.074604295 -0.31771812 -0.05547107 0.1974222 0.0039431117 -0.29094142 -0.12690781 0.22328039 -0.5605695 0.01427208 -0.27042526 0.1629281 0.20002943 0.2938993 -0.014451142 -0.33035606 0.01496548 -0.13954808 0.027408104 0.3385641 0.08491048 -0.10502701 0.30606282 0.09499504 0.114077084 0.41372162 -0.23031773 0.0032334232 0.24256097 0.11280169 -0.35164073 0.3918279 -0.08715616 -0.13242675 -0.047069833 -0.037555017 -0.031221475 -0.5252034 0.28135887 -0.24186736 -0.27748373 0.18388063 0.23311809 -0.05893266 -0.06312155 0.22344992 -0.13890538 0.058021612 0.027175924 -0.13035169 0.100534245 -0.2502155 0.19287367 0.062033262 -0.05725561 -0.20414962 0.20297846 -0.7943248 -0.036197513 0.40511355 -0.08711269 -0.2819175 -0.23361088 0.36941105 -0.23931524 0.24975918 0.14910969 -0.014988 -0.109262206 -0.15889975 -0.031334158 0.06742552 0.06487807 0.18000408 -0.39204 0.14244422 -0.13310522 -0.5634888 0.080298044 -0.21557727 0.10253633 0.29975015 0.15128702 -0.4996779 -0.34947655 0.0059053027 0.36215943 -0.43847165 0.5297398 0.29726213 0.43932796 0.06333459 -0.07269577 -0.28224748 0.09461235 -0.10341005 0.065767206 -0.23197417 -0.347298 0.05060486 0.082729965 -0.32604513 0.019944672 0.15864961 0.08804123 0.17845081 0.08918 0.12510389 0.23057903 -0.36434686 -0.054561105 -0.07974642
43 0.110997304 0.10415773 -0.026711375 -0.101255156 0.043938387 -0.36284012 0.17981683 0.06551349 -0.2553221 -0.27624545 -0.565124 -0.13986933 -0.040144734 -0.25781918 0.09361907 -0.38572213 -0.15579861 -0.20301564 0.2114056 -0.017048245 -0.3915137 -0.099046856 0.29591772 0.031500693 -0.23868226 -0.030710923 0.10836236 -0.34352508 0.35772613 0.43986136 0.21047017 0.10461679 -0.13411494 -0.15403056 0.042814914 -0.16871239 -0.16541368 -0.35119653 0.097280614 -0.23415756 0.10420069 0.15856694 -0.09541057 -0.15807086 0.004361862 -0.18450317 0.03107813 0.2897551 0.5056729 -0.145872 -0.055820752 0.22542788 -0.23019151 -0.21272644 0.38088942 0.02580824 0.25080758 -0.09379242 -0.003104895 -0.16622509 -0.12547338 0.051949754 0.00070946553 0.06664507 -0.37200683 -0.031025788 -0.26038972 0.09573985 -0.11829075 0.056145925 0.099034496 0.09248728 -0.24288815 -0.6060976 0.17077081 0.2800321 0.19027013 -0.36408618 -0.33564767 0.411448 0.025938144 -0.2278448 -0.06282551 0.23182459 0.503106 -0.20007399 0.16809376 -0.019324968 -0.023777988 0.022664849 0.23055646 -0.0037903523 0.1769651 0.20249584 0.072516546 0.23046383 0.21408631 0.14425267 0.35829157 -0.31404474 0.07653709 -0.071058854 -0.103078485 -0.12617896 -0.08303072 0.276611 0.101531595 -0.044368565 -0.059248496 -0.37877548 0.56550026 -0.012948183 -0.027654456 -0.0387015 -0.16497028 -0.5025717 0.23833863 -0.11533166 0.26920503 -0.15925848 -0.04592121 0.06200595 0.08410669 -0.013836511 -0.039391946 0.14840014 -0.43775114 -0.09799228
624 -0.4523052 0.281077 -0.06958043 0.23758368 -0.05070615 -0.4316694 0.15232144 -0.33964467 -0.2710988 0.13608627 -0.33014947 -0.1697424 -0.14441445 -0.09316764 0.37329578 -0.123173125 -0.08770855 0.051009353 0.63381785 -0.24260421 -0.24354202 -0.2282678 0.2572301 0.10895407 0.048230764 0.04113525 0.030845445 0.023321161 0.07022102 0.45842677 0.03127401 -0.30560333 0.014341167 0.47347584 -0.05467938 -0.306415 0.07735858 -0.2969444 0.37920213 -0.3797996 0.33702537 0.20203856 -0.04106095 0.42990175 -0.13029921 0.0031853244 0.5735692 0.3290553 -0.011104924 -0.5009367 0.45543313 -0.018773323 -0.16432694 -0.41544902 0.17660663 -0.11749933 -0.097394265 0.05715162 -0.49769056 0.2235477 0.3593791 0.42660952 0.15975009 -0.025772218 0.20580766 0.08885314 0.25472486 0.1304347 0.22305554 0.41096315 -0.05761197 -0.26784867 0.4459652 0.2247066 -0.3952767 0.26568925 -0.14608592 0.030767992 0.077924654 0.41097355 0.19840887 0.11286318 -0.07892113 -0.26271644 0.39420092 0.13114567 -0.45010674 0.101914614 0.37297165 -0.0157055 -0.020217223 0.07875042 -0.12172471 -0.18890454 -0.038351916 0.060377445 -0.39123762 0.44396156 0.52290344 -0.24210157 -0.028746778 0.18017274 0.29163596 -0.48782575 0.055844966 0.18063635 -0.22526689 -0.29563734 0.10567094 -0.41377944 0.115470305 -0.46332893 -0.3137137 -0.3878623 -0.15751687 0.060354225 0.37354204 -0.0143182445 0.30911422 -0.01073901 0.10730297 -0.12801947 0.10646554 0.07418946 -0.06884287 -0.047526643 -0.11636884 -0.15141414
400 -0.08519196 -0.17260875 -0.1102786 -0.2227211 -0.11591158 -0.2259619 0.12586364 0.19792177 -0.014940281 0.053352147 0.24911158 -0.03088311 0.016392602 -0.009694995 0.23514089 -0.010728612 0.051753912 0.08679517 0.32145822 0.2911821 -0.21955286 -0.045758586 -0.04051507 -0.1459728 0.57610637 -0.022682974 0.39382058 0.13022386 0.12885268 -0.000918023 0.13187788 -0.052524097 0.3285764 -0.24951115 0.04486445 -0.043853413 0.0800058 0.10276239 -0.23908716 -0.005485706 -0.048188847 0.26769572 -0.30005485 -0.59241074 -0.2514895 -0.36730206 -0.20925976 0.33199492 0.2555017 0.06868485 0.27220827 0.10154471 -0.14870405 0.19370195 -0.03361551 0.051247347 0.14510468 -0.055011228 0.18934844 0.081611015 0.18706882 0.22905135 -0.037479304 0.07378647 0.040141787 -0.0065939813 -0.049566057 0.1446508 0.22334534 0.13060793 0.5221359 -0.05138762 0.4106608 -0.12526415 0.034626428 0.43835175 -0.18012953 0.02658079 -0.18224995 -0.100601204 -0.3503633 0.046750195 0.08064151 -0.07160836 0.24778876 -0.10711885 -0.089565605 0.1560025 0.22495866 -0.012470068 0.0030051996 -0.012662244 -0.085257456 -0.016399575 0.46401417 0.1281788 0.31058112 0.27446818 0.3780856 -0.07175375 0.20884368 0.022298947 0.07176344 0.29634672 -0.031043129 0.25936517 0.41377026 -0.08548561 -0.24061194 -0.31530595 -0.061664633 -0.21288495 0.26018924 -0.07560001 -0.066343985 0.060499255 0.54774547 -0.3819172 0.51194084 -0.30532768 0.0846697 -0.08255378 -0.2611438 -0.24327153 -0.35495386 0.35472065 0.16860847 -0.018107338
1647 -0.5306883 -0.0048844554 0.50487417 -0.041629147 0.19944522 0.006918548 0.08036653 0.1605533 0.15890794 0.08130147 0.1948794 -0.1665061 -0.10635353 -0.26968786 -0.0785681 0.10079122 -0.20281687 0.15713336 -0.16008234 -0.07044787 0.23562714 0.02031036 -0.29928312 -0.10565161 0.3525559 -0.18959498 0.19296646 -0.12945652 -0.29112697 0.0085640745 0.29319218 -0.19587032 0.3534388 0.07035072 -0.018095994 -0.29200915 0.019192327 -0.3951133 0.43690565 0.16491583 0.11008823 0.15299779 0.023441344 -0.574958 -0.3875993 0.1068459 -0.009413379 0.100751564 0.06162196 -0.10623013 0.02001197 -0.48617172 -0.4050321 0.1516338 0.17540845 0.10143753 0.10113635 0.48685485 -0.31668672 0.42521894 -0.051053323 0.14964707 0.03312258 -0.016597988 0.08011912 0.100493275 -0.13714115 -0.058612432 0.02847433 0.10378272 0.011835464 -0.10034574 -5.217751e-06 -0.008098588 -0.15075313 0.24174654 -0.10391425 -0.33411527 -0.1428673 -0.14823245 -0.35431695 -0.017134603 0.04248481 -0.32335427 0.24721605 -0.3551349 -0.06454605 -0.32500586 -0.0987874 -0.13452394 0.26869866 0.024654828 0.4195129 0.16634801 0.45522118 0.37308753 0.20347436 0.33590642 0.18282673 -0.30941457 -0.049044237 -0.059211146 -0.104198314 -0.26243135 0.3609836 0.23429833 0.18709205 0.56420314 0.1349709 -0.021449864 0.1156048 0.2561272 0.21522719 -0.027669868 0.07787242 -0.1235996 -0.028868461 -0.40260014 0.48913035 0.371062 0.09584497 -0.09161557 -0.027042 0.18328844 0.049615562 -0.04746033 -0.0067356382 0.1401011
525 -0.17125264 -0.38341734 0.010462011 -0.21670675 0.2280833 0.068185836 0.17870872 -0.2651175 0.024637962 0.280303 0.35614696 -0.19141981 -0.02882314 -0.19661297 0.62487555 0.067049466 -0.17610526 0.05809987 0.40058354 0.07031953 -0.049354896 -0.3015542 0.001029075 -0.30166757 -0.03172745 -0.006200598 -0.04894688 -0.17395364 0.12970378 0.104542784 -0.15149446 -0.34834486 0.12088142 -0.010402417 -0.3423484 0.30244243 0.2539644 -0.38319647 -0.021520274 0.15813784 -0.09559682 0.42290375 -0.27149588 -0.23897858 -0.06830282 0.10233754 -0.052927226 -0.058877155 0.23279403 -0.15493816 0.013025771 0.0046098097 0.17173289 -0.07876442 0.11677861 0.26786557 0.08504369 -0.10508027 -0.036733143 -0.046777107 0.16386218 0.027172765 0.3469393 0.027760511 0.13669206 -0.30844924 0.036291085 -0.096449114 0.006845765 0.10556852 0.17418541 -0.31935483 -0.3271908 0.061785027 0.04335401 0.1784796 0.113413386 -0.51387036 -0.04869542 0.15302594 0.24058999 0.13282952 0.24520728 -0.0074031064 0.3272871 -0.36375704 -0.004122856 0.23493187 -0.057499688 -0.10274561 0.3865056 -0.088679455 0.050213873 0.013538753 0.15199289 0.47515815 0.20002897 0.26902056 0.26027176 -0.26970395 -0.014084737 -0.08601698 -0.071594566 0.190014 0.06979955 0.07575736 0.20874552 -0.061896667 -0.39152312 -0.1693338 0.08637983 0.15818283 0.1984508 -0.16774769 0.27351052 0.14000578 0.53986865 -0.18919924 0.493345 0.3235975 0.11046923 0.13651478 0.1578152 -0.6966814 0.3301064 0.18839271 0.014566102 -0.23006119
1467 0.21527274 -0.13772441 -0.06636175 0.10379501 0.1323883 -0.022791365 0.14021945 -0.16976103 -0.22125976 0.18799289 -0.12015838 -0.041549098 -0.21309412 0.41683164 0.55607516 0.26492968 0.124649316 -0.018058129 0.032508083 0.39092487 -0.09482145 -0.30950835 0.17796749 0.45056146 -0.15876582 0.007651984 0.17007035 0.13407831 -0.062874 0.40864852 0.12787424 -0.45302385 0.037196524 -0.1846603 -0.33708683 0.3251042 0.031374365 -0.3440886 0.29184303 0.092532456 0.2826585 0.24040607 0.035622314 0.2550649 0.26791078 0.16673648 -0.013845073 0.30543894 -0.08378398 -0.22001377 -0.18889168 0.1892293 0.06429064 0.24625231 0.33722752 -0.35226813 -0.12460863 0.26544088 0.21079007 -0.27766046 0.06922344 0.3273413 -0.33927068 0.1463297 0.3880119 -0.14250538 -0.09555443 -0.29484394 0.05726319 -0.100689 -0.41474697 -0.27676544 0.11115847 -0.59498775 -0.43705755 0.17901774 0.13296248 -0.30495584 -0.4289664 0.23471472 0.035362024 0.059338957 -0.3421359 0.14324075 -0.08440332 -0.02977399 -0.1185024 -0.087794386 0.18143767 -0.06583714 -0.23853742 0.12538643 0.023442898 0.03392547 0.23834409 -0.30874074 0.4109604 0.24153548 0.14235654 -0.27352867 -0.04333743 -0.25612745 0.12556641 -0.49462008 0.50602597 0.31054932 0.31255704 -0.24287558 0.1592091 -0.13182677 0.37277678 -0.039222818 0.0991638 -0.07700455 0.059434574 0.090166844 0.21335232 -0.06132212 0.12014294 -0.13596493 0.40641806 0.12731639 0.14098294 0.036813214 0.023630148 -0.55783063 -0.08666161 -0.07708108
235 0.21553917 -0.0995684 -0.1371024 0.3365601 0.23753902 -0.3072641 -0.07716246 -0.059114035 -0.11072181 -0.35519013 -0.39780188 -0.13090912 -0.19036914 -0.002536859 0.27868864 -0.12799054 -0.3380299 0.03472116 -0.22837053 0.14501114 0.10950029 0.093412474 -0.04108599 -0.041962244 -0.23578939 -0.25304675 0.1538829 -0.06448168 0.07262087 0.38956603 0.08932012 -0.067039244 0.01651771 0.00069538987 -0.027728185 0.13113666 0.35820547 -0.41563538 -0.0590791 -0.26962188 0.49956584 0.32045543 0.10254896 -0.07305315 0.20485951 0.04661165 0.08044129 0.5926635 0.16449085 -0.030970933 -0.008803324 -0.013160554 0.09780648 0.32586908 0.13156717 -0.42193222 0.058379404 -0.16273381 0.2620121 -0.01302205 -0.24992807 0.37958536 -0.278058 -0.06482833 0.26604056 -0.32083863 -0.020329382 -0.17670871 -0.05718892 -0.030932184 -0.040710784 0.23052196 0.10653942 -0.5651343 0.28969035 0.16990589 0.16615412 -0.4308264 -0.22588053 0.3121025 0.06517981 -0.026571237 -0.11045122 0.05856011 -0.088499814 -0.3574055 -0.03408792 -0.3930358 -0.27794495 -0.018804034 -0.29801735 0.028220264 -0.1196612 -0.15880036 -0.0043334677 -0.27664542 -0.0154984305 0.6122276 0.11405878 -0.20756924 -0.08282894 0.056590907 0.4228872 -0.61484104 0.18913332 0.2606276 0.31018826 0.09809632 0.2467977 0.27529982 -0.08092146 -0.107466236 0.26195988 -0.0034808335 -0.056645263 -0.2176467 0.115613125 -0.09083807 0.047595415 -0.06770472 0.4182478 -0.124310665 -0.04646504 0.1477001 -0.014637271 -0.21074978 -0.20567165 -0.2145845
228 0.25192237 0.26570868 -0.06292672 0.5087349 0.106343016 -0.12681176 0.21833408 -0.20910187 -0.13948679 -0.29796568 -0.32910094 -0.043714814 0.0384239 -0.15715246 0.5420861 0.051997174 -0.15622145 0.0010257618 -0.23396508 0.2451469 0.029749839 0.17625308 -0.036708966 0.12613267 -0.18816897 -0.33284816 0.18764308 0.24244562 0.35773736 0.5381512 0.28271347 0.08611274 0.15981121 -0.27056262 -0.1745432 0.2355758 0.2886182 -0.5076153 0.11224261 -0.14988388 0.17502366 0.43405345 0.28026003 -0.11261377 0.19188456 0.18663707 0.28362027 0.1987348 0.059594262 -0.14654706 -0.040059987 0.072895475 0.1834498 0.13311046 0.029346263 -0.33815044 -0.0732682 -0.007968917 0.037029292 0.07454646 0.060336526 0.25237545 -0.032931115 0.08337875 0.10393539 -0.44767654 -0.034971226 -0.439531 0.1511659 -0.1337615 -0.30290696 -0.02679296 0.2354907 -0.5196149 0.34858575 0.096231885 0.13473977 -0.40417072 -0.11117772 0.043511625 0.19700107 0.19342797 -0.23130085 -0.16599914 0.11159433 -0.06193003 0.056639247 -0.11147631 -0.32763654 -0.18423836 -0.21763737 0.0113253435 -0.21668309 0.020710062 0.061337687 -0.43387052 0.27568942 0.5401413 0.1804915 -0.17536873 -0.062014118 0.00096778077 0.3252751 -0.5273771 0.37219417 0.36966226 0.4288659 -0.13516708 0.1013146 0.21190201 -0.22524384 -0.24384232 0.097226016 -0.065247156 -0.3613395 -0.109001696 -0.0929767 -0.32056564 0.07722035 -0.2671046 0.33605406 -0.13051672 0.05493081 -0.023367114 -0.011918323 -0.19337879 -0.039388105 -0.27501282
509 -0.250949 0.19752802 0.16806161 0.09510197 0.0799953 -0.18091187 0.0177865 -0.17190781 0.1428272 0.3050717 -0.19736041 0.17958373 0.1207599 -0.2491185 0.1681493 0.26350877 0.11308056 -0.23411168 0.4244022 0.15445337 -0.057990525 0.15477397 0.092609 -0.035616547 0.10896409 -0.17959397 0.2008049 -0.22098728 -0.19507909 0.12355797 0.73700327 -0.14283115 -0.40684333 -0.015808089 -0.21095474 -0.047217928 0.29540196 -0.15946716 -0.26359499 0.059030615 -0.30904058 0.06357156 -0.18903671 -0.19144088 0.17678222 -0.227545 0.12230818 0.032785192 0.17431243 -0.1776099 -0.039469138 -0.016069164 0.11260655 -0.029598426 -0.021524454 -0.40234244 0.22231734 0.3229524 -0.13330744 0.54139006 0.06667875 0.10486425 -0.14345469 0.18011855 -0.09137532 0.042805377 0.12772629 -0.29152963 -0.1627878 0.06035586 -0.104504146 -0.14195885 0.32452846 -0.10856341 -0.33855572 0.218907 -0.06837246 -0.17042106 -0.2624653 0.13508047 -0.09460812 -0.26645526 0.36514816 0.16648301 -0.04009424 -0.15120716 -0.100115135 0.15456572 -0.24490145 -0.10356939 0.23940443 0.11862685 0.22252198 -0.0995681 0.0761013 -0.47105867 -0.04456445 0.06396779 0.306585 -0.1259725 -0.027624577 -0.077039905 0.22301982 0.32937795 0.022708734 0.10138871 0.09693554 0.032056797 0.07779679 -0.7595206 0.31192246 -0.13055874 -0.03471586 -0.5185787 0.060463727 0.3977041 0.016887374 0.13823485 -0.18686643 0.06146384 0.040322173 -0.37272933 0.54450446 -0.32686946 0.29853287 -0.22593941 0.333718 -0.13589959
1525 -0.030749023 0.01817571 0.40381828 0.26045328 -0.1742348 -0.49772245 -0.08830401 -0.22059713 -0.19746031 0.2946882 0.006967121 0.09247464 -0.3561197 -0.06871832 -0.04969624 0.0012328643 -0.103790276 -0.08560667 -0.14539576 -0.17939234 -0.03703285 0.18857412 0.2129442 0.008026605 0.20508388 -0.06263666 0.19760905 -0.2620196 0.051011615 -0.14128056 0.017827716 0.020784734 0.058675695 -0.4877681 -0.1610808 -0.04543993 0.18518414 -0.18234289 -0.047170393 0.18421905 -0.101747334 0.051007796 -0.48839745 0.09081458 -0.14791195 -0.5101422 0.22673386 0.34222797 0.37030885 -0.09781616 0.11015986 -0.12511027 -0.24875572 0.050884355 0.2011681 0.18881471 -0.24384135 0.082637325 -0.06204014 0.49756566 -0.18315186 0.07565801 -0.13470149 -0.131415 0.29534414 -0.13664055 -0.077861756 -0.30553812 0.14294815 -0.06457963 0.11446852 -0.47712594 0.17635828 0.5385248 0.14510462 0.2841246 0.26664546 -0.2638356 -0.15274413 -0.14370908 -0.20670667 -0.007971447 -0.12264635 -0.36818382 0.0012088456 -0.11156915 0.19059138 0.11891942 0.042879976 0.41499197 0.26449883 0.19096847 -0.3471846 0.0048193047 -0.04745777 -0.010547913 0.40155318 0.064610444 -0.0493133 0.04925486 0.088379525 -0.242041 -0.011383951 -0.39042187 -0.12824273 0.007134972 0.3317781 -0.42418477 0.07983137 -0.4568238 0.5339555 -0.023103116 -0.09609098 -0.4449577 0.020188225 -0.2024955 0.06796006 -0.31265515 -0.0019392092 0.26621768 0.053021524 -0.29296288 0.028739521 -0.119352885 0.43455893 -0.026311943 0.17657572 -0.39866343
1717 0.12771596 -0.024959441 0.101059616 -0.66474897 -0.25938085 -0.36490938 0.42888188 0.03255031 -0.12490608 -0.20683146 0.14888985 0.07070074 -0.385869 -0.22356811 0.56154776 0.31899413 -0.15261137 0.012829305 0.28536648 -0.303376 -0.13143161 -0.2009048 0.17075153 -0.135264 -0.20643921 -0.14824945 0.09801447 -0.20093012 -0.008114278 -0.14540236 0.027921349 0.054062173 0.059918106 0.1262215 0.13127325 0.17279212 0.110954635 -0.3895382 0.053330384 0.21260858 -0.034785595 0.48123264 -0.24600981 -0.2581654 0.068073295 -0.08161419 0.20484343 -0.097615264 -0.016293267 -0.18963583 0.10811457 -0.1451195 -0.06328656 0.4346928 -0.22828561 -0.03876154 -0.13873549 -0.059241474 0.07414165 0.29340112 -0.07738426 0.19472592 0.040099945 -0.32489437 -0.12644024 0.24903646 -0.18197267 -0.140757 -0.27803162 0.08779408 -0.17405856 0.10208196 0.12554215 0.05782721 0.28945905 0.40188292 0.15766478 0.09465297 -0.1951243 0.113324545 -0.10661251 -0.00051620434 -0.3204552 -0.20368771 0.02011351 -0.27706763 -0.5018158 0.06309422 0.13022727 -0.30119812 0.40967017 -0.24559283 -0.1504694 -0.26687863 0.34157223 0.059433606 -0.023622125 -0.048253383 0.5279007 -0.22455138 0.17110193 -0.26847115 -0.23423962 -0.17731006 -0.28353062 0.16380452 -0.01648412 0.14786106 -0.31545085 -0.29714835 0.013859626 0.1656768 0.3404304 0.24080764 0.14004214 -0.16993034 0.17887895 -0.33991432 0.5384742 0.09757484 0.519642 -0.24373569 0.08173858 0.1398464 0.038318858 0.29854205 -0.2097223 0.44134226
471 0.017084556 0.022513522 -0.1379495 -0.18294261 -0.08864647 -0.116909556 0.35236973 0.07691846 -0.35820198 -0.057784203 -0.23425335 0.1809521 -0.14469165 -0.20964128 0.66520005 -0.06957488 -0.19762802 -0.19299576 0.0131516075 -0.24253029 0.3239786 0.013221452 -0.21563086 0.5062583 -0.07508026 -0.42578444 -0.1673233 -0.08194627 -0.028692927 -0.2023026 0.32731807 -0.15651095 -0.14056624 0.38511238 -0.21701227 0.23175986 -0.041794777 -0.24014077 0.10133127 0.06067309 0.07594935 0.14291617 -0.12341167 -0.12064401 0.03617518 0.03903839 0.06221681 -0.4147237 0.14562185 -0.051461853 0.17226948 -0.6695236 -0.093327835 0.3214804 -0.1429004 0.0929605 0.07275069 0.049334202 0.07562587 0.0365694 -0.045140136 0.12074257 0.1594573 -0.04825187 0.3390761 0.16584693 -0.10220616 0.22175698 -0.07469865 0.29150212 -0.032120895 0.0023053994 0.20478605 0.08509297 0.360364 0.28382817 -0.0050438466 -0.11258515 -0.3090904 -0.41162935 -0.37725654 0.07650424 -0.18827799 -0.028442476 0.42655846 -0.601601 -0.2951308 -0.23137213 -0.20672011 -0.4745493 0.37710914 -0.33602774 0.08731884 -0.19446352 0.456394 -0.03131985 -0.6645471 -0.15685225 0.49205956 -0.24944602 -0.03662805 0.03654577 -0.12060433 -0.04301892 0.34799516 0.28048044 0.1599853 -0.10307243 -0.016931083 -0.52230763 0.06461775 -0.42989594 0.24655089 0.23963803 0.0745706 0.24840304 -0.047033735 -0.31994653 0.2580418 0.2060716 -0.12139353 -0.09737916 -0.3290644 -0.101082586 0.34096408 0.2491839 -0.08619895 0.0993538
1465 0.020521903 0.12044308 0.042276677 0.36219928 0.12310326 -0.052747354 0.05040025 -0.3951314 -0.38158554 -0.28656948 -0.258404 -0.2541078 0.03557332 0.23162541 0.45175818 0.24587594 0.16197683 0.114261426 -0.19613443 0.40004468 -0.014457303 -0.3023853 -0.023497948 0.44235834 -0.47967893 -0.2809288 0.16450548 -0.14453687 0.14914677 0.37047043 -0.018127708 -0.18908419 0.07131671 -0.23562533 -0.15238895 0.38229793 -0.043615274 -0.2193736 0.17494515 -0.033327933 0.0393485 0.3160348 0.07605009 0.07186799 0.13897777 -0.022708507 -0.016430886 0.435984 -0.13478377 0.00477831 -0.17389846 -0.11196686 -0.19193746 -0.005644211 0.027893493 -0.26576483 0.024016088 0.17034638 -0.10879117 -0.21499172 0.14267485 0.41933963 -0.33563304 0.2775181 0.3166488 -0.29427636 0.09040032 -0.21883993 0.19690481 -0.22513288 -0.2393675 -0.13114633 0.24232127 -0.6880711 -0.12000594 0.34535167 -0.1339256 -0.27471185 -0.34078005 0.31361768 0.18600187 0.31010857 -0.17000633 -0.0024793812 -0.090512976 0.1104675 -0.026091551 -0.12787262 -0.046908174 -0.24320771 -0.2198794 -0.02265765 -0.065176226 -0.3430354 0.20224747 -0.19531998 0.20950948 0.29279923 0.18931292 -0.44047868 -0.24405108 -0.19711263 0.38599744 -0.4478547 0.42990327 0.36463588 0.32396108 -0.021353697 0.0408194 -0.0691314 0.080374785 -0.028675128 0.05792057 -0.28554356 -0.36238852 0.06032843 0.32163495 0.065954335 0.13590942 -0.088097095 0.40982798 0.14984007 -0.122568935 0.22706719 0.01856747 -0.32571143 -0.21054392 -0.016057447
1466 0.13795091 -0.025742415 -0.2647444 0.5230363 0.07217044 -0.118173115 0.16103345 -0.35698083 -0.053126547 0.18380837 -0.2975961 -0.28061152 -0.031592946 0.08909932 0.3976728 0.110606164 -0.029831804 0.1466158 -0.35502097 0.42195436 0.01275953 -0.08897003 0.08526234 0.030577488 -0.22954057 -0.29560757 0.119040266 -0.05283519 0.3458109 0.48328853 0.18325536 -0.3471848 0.4068821 -0.07338856 -0.10392432 0.29839066 0.2113213 -0.21176158 0.1656207 0.18939635 0.36325756 0.5844639 -0.292121 -0.07162866 0.123204984 0.31614903 0.036245115 0.4106364 0.1823431 -0.2016706 -0.0943929 -0.11669393 -0.047529273 0.026363084 0.027014447 -0.121879965 0.27571192 0.25600228 0.2170715 -0.20081711 0.10226358 0.32563043 -0.3664259 0.23617189 0.26693705 -0.5690033 -0.11046686 -0.16591306 0.02084038 0.060246095 -0.26158345 -0.27580324 0.4876224 -0.5958334 -0.254447 0.23478891 0.34650964 -0.15398386 -0.18635169 0.2734941 0.089123726 0.4823844 -0.35239378 -0.0025918526 -0.16895527 -0.16859661 0.17052363 0.024110582 -0.13198785 -0.22421859 -0.06505846 0.20075537 -0.33649483 -0.14020443 0.10583301 -0.18276654 0.040425073 0.23570131 0.13711183 -0.17271009 -0.3324385 -0.23621719 0.10980756 -0.53037363 0.5570939 0.13915026 0.26437017 -0.16164882 0.046170823 -0.18689229 -0.005362099 -0.0012992373 -0.24909286 0.067086644 -0.19094089 0.20170814 0.1224175 0.12997767 0.16596878 -0.30694592 0.3260532 0.16462618 -0.2693037 0.097900465 -0.12556738 -0.08384748 -0.05279809 -0.18513761
458 0.05456201 -0.25542107 0.104589276 -0.04925224 -0.008787638 -0.22717065 0.24031329 0.26421687 -0.034176156 0.014641355 -0.2645799 0.023306679 -0.0111644715 -0.28430375 0.026044099 -0.20697537 -0.18462965 -0.40253964 0.031982847 0.26731634 -0.24293557 -0.104324915 -0.057171576 0.31469798 0.5091379 0.25006375 -0.0066516027 -0.15810497 0.15112428 0.06778441 -0.034337603 0.08227304 0.15735635 -0.105088696 0.07866611 0.05958312 0.54162896 -0.0017846392 0.43059537 0.02034424 -0.10959603 0.075569265 -0.43965054 0.060275685 0.29812497 0.015522534 0.2801629 0.37373826 0.11409575 -0.5250749 -0.086497076 0.04513093 0.1353342 -0.04057395 -0.047265135 0.17523955 0.079098865 -0.07088348 0.06590046 0.17499246 0.18745366 -0.060888514 0.14900127 0.19331361 -0.029524177 -0.21929465 -0.1183369 0.4201142 -0.031637922 -0.02238506 -0.118454546 0.025879947 0.3579263 0.19511138 0.1461948 -0.015607732 0.13379964 -0.26829916 0.027319536 0.055639748 -0.030222625 -0.31570667 0.29485795 0.08804199 0.019351872 0.08407895 0.022176858 -0.15431961 -0.06504602 -0.29029328 0.17660959 -0.42111197 0.09210848 -0.07934882 0.3677134 0.20348385 -0.002540825 0.12378226 0.14098707 -0.32134253 0.013362874 0.48815206 0.4061241 -0.33666041 -0.22289173 0.49225828 0.10972343 -0.25880617 -0.16814162 -0.10431264 0.44150987 0.15485671 0.035164703 -0.311134 -0.28179455 -0.042277895 0.28651375 0.11309519 0.6846246 0.22930361 0.15582757 0.25043273 0.15517446 -0.21341123 -0.26257855 0.052119225 -0.24625853 -0.037551098
1445 0.11831239 0.2206395 -0.17842893 0.3918119 0.12599552 -0.1315371 0.016250702 -0.42447376 -0.4580651 0.45571804 -0.25633633 -0.40015906 -0.37290207 0.1270603 0.39481515 0.054542966 0.06429277 -0.39699903 0.061284896 0.36520255 -0.34318638 -0.2501054 -0.057646 0.26689875 -0.36623886 -0.22477075 0.05188647 -0.077919915 0.2363524 -0.010262349 0.06732518 -0.32292753 -0.14779237 -0.17121352 -0.017527884 0.48347402 0.32961953 -0.39036065 0.29435346 0.123425715 0.052863088 0.2657423 -0.01392911 -0.070899494 0.28375793 0.24776022 -0.33610305 0.5457974 -0.22646329 -0.0850035 0.14938831 -0.0894751 0.10810722 0.19101839 -0.03516353 -0.09005502 -0.0892835 0.0073763644 0.12914346 -0.25282708 -0.10448303 0.31181267 -0.21461356 0.38401693 0.06372511 -0.4594015 0.047917467 0.014952691 0.20209813 0.100029014 -0.3669992 -0.123167604 0.24821004 -0.4026691 -0.34629515 0.32281917 0.17645034 -0.1072521 -0.058159776 0.40710294 0.18217088 0.3005871 0.0033727065 -0.11939498 -0.11479313 0.00980464 -0.03465198 -0.41636258 -0.25301912 -0.15846999 -0.2139933 -0.08757938 -0.20515195 -0.093847424 0.28912053 -0.14643048 0.082888156 0.2514533 0.19458877 -0.24792407 -0.021043722 -0.20193513 0.37009957 -0.34527814 0.6190186 0.038208693 0.3089877 -0.1524732 0.26299104 0.0012193394 0.3212981 0.097456574 -0.056628387 -0.14105846 -0.25462058 0.23979515 0.05650466 -0.18644702 0.07751002 -0.01068443 0.25646096 -0.30658525 -0.015381159 0.079253934 -0.022816215 -0.31673816 -0.2989691 -0.32192898
2288 -0.15844126 -0.09582943 0.48817396 -0.07495174 -0.3713808 0.0037064084 -0.016433297 -0.22797018 0.16722539 0.35443047 -0.037312392 -0.08916608 0.024569381 -0.42968816 0.13993835 -0.08568123 -0.22799887 0.27728596 0.19254899 -0.15094173 -0.034413837 0.030330589 0.20508526 0.024420444 -0.049792837 0.3406197 0.10070478 -0.20608276 -0.099853225 0.07922979 0.26018634 -0.37289545 -0.41925865 -0.5941702 0.4532691 -0.0019786952 0.29125127 -0.44588697 -0.029920964 0.65873724 -0.24311008 0.11485265 -0.11195872 0.45272303 -0.42011562 -0.09097483 0.028176825 0.23438868 0.344589 -0.16871504 0.46844822 -0.046416793 -0.11138527 0.34000447 -0.0040868428 0.15380375 -0.12767072 0.038811054 0.12413096 0.10059002 0.1630145 0.53700554 -0.3242542 -0.5233623 0.08283667 0.18700026 -0.5868992 -0.080768 0.13596024 0.12752387 0.10455998 -0.45857704 0.39198217 0.39407384 0.300092 0.154962 0.25700966 -0.06421232 -0.096586026 0.4683021 0.072757326 0.081451066 0.37912607 -0.21882194 -0.04296756 -0.09325469 -0.19791152 0.10725485 0.18811496 -0.23232663 -0.09323642 -0.28327984 -0.27046603 0.22015351 -0.21278802 0.07591465 -0.22415844 0.5719233 0.081056625 0.1553579 -0.25763062 0.066446476 -0.016308567 -0.26278102 0.089145266 0.019851713 0.18233462 0.10744204 -0.13783735 -0.27773908 0.19481689 0.12141435 0.061277952 -0.08833361 -0.069876306 -0.08227093 0.5795205 0.14311348 0.1863505 -0.18914843 0.25206512 0.20447959 -0.045664497 -0.16429262 0.28592643 -0.28455198 -0.005603831 0.07960479
682 -0.28359845 -0.23560613 0.15318994 -0.15269786 -0.18988526 -0.24951907 0.072368674 -0.23311302 0.19766247 -0.020234726 -0.00881735 -0.46215346 -0.01654688 -0.24147455 0.089296326 -0.1268013 -0.104430534 -0.21118139 0.12612104 -0.054652903 0.090318635 0.10482653 0.17555314 0.2730193 0.37390405 0.30974883 0.083904006 -0.2221195 0.18608691 0.0044217487 0.16416623 -0.081530556 -0.15871224 -0.4051931 -0.15593383 -0.3023621 0.020630335 -0.026522364 0.34468952 -0.31085593 -0.2536559 0.31522018 0.22342427 0.24249032 0.21219431 0.46642104 0.056693386 0.2739386 0.15355413 0.26421112 -0.49653766 -0.19421208 -0.32699826 0.3756953 0.37559766 0.4832872 -0.084798306 -0.24487485 0.018184304 0.004047047 -0.19274361 0.012792629 -0.05470992 0.1891275 0.30699962 -0.3668241 -0.3695396 -0.25293112 -0.2822531 -0.06041467 0.18542023 -0.16771589 0.123302326 -0.19393094 -0.22661944 0.5940536 -0.16546234 -0.19282928 0.37047622 0.3965604 -0.68730724 -0.27836278 -0.023886004 -0.25940388 0.056177538 0.06920869 -0.12208667 -0.109506786 -0.57608724 0.019377684 0.14843744 0.29163048 -0.016967792 -0.37500572 0.1776728 -0.20600244 -0.090207934 0.18176049 0.022580713 -0.04576572 0.11114332 0.0619145 -0.118783414 -0.29031327 -0.3870287 0.26000533 0.23658232 0.35752332 -0.09465734 -0.57501304 -0.22231965 -0.33231223 0.2923321 0.052230734 -0.13773334 -0.035296615 0.044876937 -0.3879594 0.036326144 0.030314889 0.112451926 0.012419347 0.08304351 0.01252848 -0.18514839 -0.13183673 0.18052384 -0.06534354
713 -0.22490782 -0.11949208 0.16670229 -0.20897451 0.17635402 -0.42704362 -0.3056123 0.32694337 0.11246909 0.039036017 0.3472571 -0.4879164 -0.13863012 -0.16120812 0.45555782 -0.16394897 -0.28783992 0.16719434 0.33757424 0.6104366 0.22788738 0.19498308 0.06819884 0.0059836716 0.091651045 -0.019743001 -0.33332983 -0.30347225 0.15741642 0.004278431 0.029600944 -0.15564814 -0.27895135 0.052853577 -0.54712415 -0.07158258 0.2910195 -0.62203133 0.21516386 0.22271505 -0.046206117 0.42520753 0.04144316 -0.16256888 -0.0005295414 0.1840751 -0.2242793 -0.045024566 -0.26939487 -0.20995447 0.15495819 0.15390447 0.24228822 -0.031678915 0.18272981 -0.05229502 -0.08114962 -0.03714825 -0.012503204 -0.083478324 0.30858484 0.27500126 -0.1934924 -0.12649526 0.453411 -0.4545465 0.018681189 -0.11378252 -0.27003393 0.41289833 -0.30934343 -0.03950378 0.19670503 -0.20060338 -0.118339375 0.3501721 0.2263775 0.13816077 -0.06190178 0.04271125 -0.20556717 -0.15590261 0.1501841 -0.482931 0.1632918 -0.06515236 0.17644413 -0.2314079 -0.3085307 -0.4347602 0.09349253 -0.2825473 0.11557122 -0.058000617 0.29921615 0.51633316 0.47252667 -0.36112836 0.27725643 -0.26659203 -0.031778645 -0.48931807 0.1509063 -0.036687862 -0.07549553 0.07365137 0.24945225 -0.04499395 -0.50133055 -0.13141795 0.049911596 -0.043314923 -0.10807015 -0.0953214 -0.044187058 0.40070984 0.34646535 -0.49984446 0.111930564 0.42402044 0.31642935 0.36723983 0.21142204 -0.12709576 0.096238606 -0.07772065 -0.24677525 -0.047705706
391 -0.08087828 0.033400293 0.2007138 -0.023291435 -0.18867056 -0.123801544 -0.06480623 -0.27370667 -0.15389876 -0.26543313 0.007257165 0.10287608 0.07913741 -0.029048357 0.019050464 0.29593542 0.18866114 -0.26819915 -0.032988828 -0.36745617 -0.40661785 0.022091562 0.41195542 0.30986 -0.04914457 -0.1387417 0.3988069 -0.45068693 -0.1284146 0.09220892 0.42477444 -0.27633074 -0.08502744 0.17986794 -0.1812007 0.2157927 0.17739806 0.34146512 0.16900244 0.2829151 0.122589916 0.13921066 -0.28765187 -0.23249555 0.2512772 -0.11102785 -0.093350306 0.30987468 0.011097198 -0.21395616 0.15734035 0.12378389 -0.0054214634 -0.016924718 0.5359151 -0.082679346 0.08700458 0.39193037 0.19538577 0.0180517 0.3837311 0.1084337 -0.2937798 -0.10053861 -0.005017958 0.09316034 -0.25586346 -0.2827147 0.052211925 0.22725834 0.061396495 -0.052282877 -0.11506242 -0.42739743 0.16689526 0.4378148 -0.21163836 -0.45578727 0.027477806 0.35880256 -0.0903281 -0.07934155 -0.0040950626 -0.11529545 -0.071462445 -0.20200916 0.458263 -0.06816694 0.019076036 0.25219858 0.001266111 -0.3098392 0.24135807 0.15826696 0.42771277 0.21163027 0.06831669 -0.0052718967 -0.008981606 -0.22341108 -0.23823665 0.12760742 0.08981138 -0.24598603 0.15087384 0.43244997 0.033054315 -0.31554693 0.1768576 0.17195784 0.1715251 -0.16212377 0.31881127 -0.17202097 0.13337521 0.052469797 0.31730244 -0.1869574 0.31552222 0.21337275 0.019684874 0.5024259 -0.043234177 0.06909575 -0.34682956 -0.42153323 -0.54899603 -0.12620583
69 0.09581854 0.2660247 -0.24970569 -0.23998648 0.36739382 -0.16583718 0.2260431 -0.3079211 -0.09898229 0.05034776 -0.14088099 -0.09759034 -0.015290036 0.087106064 0.09588673 0.06672251 -0.24438041 -0.30548093 -0.24439868 -0.1211225 -0.045982555 0.21306571 0.12666546 -0.11167397 0.03426722 -0.19587748 0.16980392 -0.13314143 0.35257778 0.35029384 0.34336257 0.67671156 -0.18410258 -0.3737523 -0.12417483 0.10427318 0.03071321 -0.36942855 -0.13144155 0.097114526 0.055856843 0.27617797 -0.0248811 -0.17628467 -0.036026053 -0.039096206 0.3072802 0.033683702 0.16769272 -0.11836853 0.02950185 -0.03074658 -0.20214762 -0.008676901 0.33241016 0.25059563 -0.35555696 -0.2570301 0.065481305 -0.04943484 0.103025116 0.2717709 -0.112675674 0.032883476 -0.32291082 -0.21452636 0.31726098 0.00020002051 -0.21051358 0.15588625 0.19626006 -0.120084226 -0.1350413 -0.29045245 -0.2805129 -0.18191357 0.4836829 -0.63188785 0.04520195 0.66311526 -0.06244685 -0.46609095 -0.19317068 -0.007044879 0.4005674 -0.39646465 -0.061916497 -0.45516333 -0.08817583 -0.042992394 0.031008134 0.32867125 -0.25019756 -0.12155003 0.22959456 -0.046618853 0.062672645 0.52501005 -0.05274924 -0.3020625 -0.010180048 -0.05897037 0.19125754 -0.22763129 0.32817712 0.030272808 -0.112237126 -0.22619109 0.07128147 -0.33480325 0.28971183 -0.25923502 -0.08377495 -0.11863599 -0.45753086 -0.07110151 0.29153848 -0.18432437 0.1909898 0.19338891 0.0630027 0.2299695 -0.22994275 -0.20339791 0.12395887 0.16496994 -0.24980256 -0.107640736
1637 -0.62573785 -0.02235234 0.3512824 -0.18741801 -0.24057204 -0.14046109 0.037296645 0.109628275 0.10426231 -0.057720423 0.29026505 0.0005632432 -0.19907857 -0.6293324 -0.02147971 0.091181286 -0.00163537 0.45840445 -0.10722754 0.003214088 0.23177314 0.016869314 -0.42411396 0.052390005 -0.029155586 -0.1786729 0.03559233 0.18871088 -0.20235492 0.114869244 0.29098573 -0.21779086 0.009345491 0.113574564 -0.20879894 -0.14341298 -0.18068394 0.012835339 0.5496407 0.17274398 -0.028099084 0.13376744 -0.07327104 -0.6950907 -0.32248563 0.41036773 0.10941988 0.19739476 0.1391153 -0.26159075 0.027955491 -0.23294412 -0.044154584 0.20914581 0.13111635 -0.014852539 0.047518786 0.23266633 -0.262424 0.25069687 0.20707913 -0.05964278 -0.28623748 0.13016699 0.020645196 0.1797733 -0.21666938 0.05301831 -0.024293978 0.14419024 0.11089975 -0.24323314 0.4298475 -0.13883299 -0.06445595 0.35392034 -0.14029548 -0.4549051 -0.36051336 -0.070418894 -0.41040054 -0.10714909 0.18643408 -0.5249667 0.28250307 -0.15854782 -0.09107072 -0.1604351 -0.32989037 0.110280976 0.5003197 0.11982909 0.22115476 0.122858495 0.1235113 0.36954576 0.19413832 0.24567874 0.15713048 -0.06807615 0.13357131 -0.19860823 -0.09222917 -0.32675135 0.02578612 0.4234272 0.07445838 0.44448844 -0.0691254 -0.09263876 0.18159424 0.20770621 0.474218 -0.47912744 -0.23805217 -0.3353104 0.17161152 -0.5505843 0.035335705 0.040966034 -0.0873408 0.1285044 -0.0022575983 0.035640653 0.08681567 0.26708195 -0.013906666 -0.06672115
602 -0.2183104 0.16852331 0.05024547 0.033472657 -0.17710505 0.12145079 0.07783595 -0.26854223 -0.03048159 -0.11155278 0.19801484 0.16284664 -0.41920558 -0.012372608 0.053999785 -0.03438467 -0.23330984 -0.027715057 0.74172956 -0.24619824 -0.23645441 0.10723851 -0.07123636 0.3735029 -0.10393078 -0.053514756 -0.16761051 -0.4809663 -0.12339403 0.68767965 0.04544023 0.13193034 -0.36199805 0.16979866 0.0996103 -0.19517109 0.09251572 -0.42595 0.13618065 -0.19081454 -0.06714893 0.104921736 -0.26794106 0.3322009 -0.20079611 -0.29403037 0.19603664 0.5482628 -0.05841444 -0.1344075 0.2151054 -0.0792612 -0.13321109 -0.085296065 0.091432065 0.00727096 -0.23323502 -0.045739755 -0.31035522 0.07867558 0.1448106 0.19405559 0.27295935 -0.30527198 0.20270452 0.009291446 -0.0714538 0.2124689 0.46169385 0.50148803 0.17268424 -0.116632044 0.25417614 0.28457174 -0.05567866 0.4477718 -0.15610398 -0.39098844 0.25207785 0.28614834 0.10713195 0.29359663 -0.17996722 -0.124706365 -0.07182905 0.1447827 -0.6172958 0.18430926 0.3798293 -0.5322108 0.17856337 0.17312995 -0.13259079 -0.05061249 0.11317167 -0.2566945 0.18483283 0.14723219 0.30296028 0.040629636 -0.032642033 0.32137457 0.48440027 -0.18566391 0.061212987 0.14360963 -0.056561526 0.04760321 -0.09352319 -0.31304625 -0.16576965 -0.25903964 -0.1563169 -0.20559932 -0.78289306 -0.17952982 0.08725633 -0.5327117 -0.05020176 -0.20680389 0.0863202 -0.38869226 -0.14142808 0.34626266 0.04567078 -0.41700682 0.1681395 -0.43330497
1434 0.30958912 0.19092767 -0.04259641 0.32061055 0.06041047 0.0038144984 0.084512055 -0.31852773 -0.43956402 -0.11927226 -0.45822808 -0.047995426 -0.016124913 0.1773889 0.621028 0.029813508 0.047078695 -0.08473597 -0.08449342 0.3161459 -0.12681828 -0.32315442 0.07344622 0.21461171 -0.46124437 -0.16372952 0.11730111 -0.03214533 0.27027866 0.3199842 0.15123215 -0.45601195 0.40759015 0.08743398 -0.19207577 0.63419837 0.26851544 -0.45598054 0.3292772 0.08936536 0.28794476 0.6223535 0.040908467 -0.16073072 0.08334641 0.11152566 -0.11524935 0.35224766 -0.07260787 -0.11420498 -0.13999149 -0.13589068 -0.25588864 -0.21063006 0.046879873 -0.30070564 0.031788714 0.10901715 -0.04051739 0.12559089 0.15422519 0.58486503 -0.08479266 0.4030172 0.26068863 -0.21145341 0.15694582 -0.31206346 -0.02463703 0.119121514 -0.0074750683 -0.19710204 0.23166616 -0.5645578 -0.27794114 0.09020226 -0.10963023 -0.37512168 -0.15770881 0.1630003 0.039357867 0.17225714 0.1711134 0.1075115 0.19652168 -0.05756189 -0.13928632 -0.17795496 -0.17754984 -0.08333396 -0.2952702 0.28207758 -0.23027256 -0.25006056 0.16625246 -0.2538018 -0.12662368 -0.1041905 0.19560467 -0.45492923 -0.026719827 -0.23807287 0.1540357 -0.3640027 0.39007622 0.45565736 0.4233716 -0.26574853 0.20072581 -0.02178613 0.13152649 0.11860736 0.10393897 -0.1923553 -0.357712 -0.023444584 0.28950992 0.09896932 -0.03634385 0.042656265 0.16380936 0.0743919 -0.22413954 -0.01249168 -0.05305515 -0.3034708 -0.5935883 0.19288814
1653 -0.35975465 0.0621725 0.31846192 0.017933516 -0.16764022 -0.118129954 0.15751801 0.531056 0.015907494 -0.0002380097 0.3309893 -0.26861045 0.05730756 -0.36554104 0.39113045 -0.0825455 -0.06395181 -0.14787878 -0.17822361 -0.35443744 -0.07910929 0.028053958 -0.19435477 0.5072321 0.13196385 -0.046245538 0.035796527 -0.14394656 -0.2343065 0.22843488 0.37601957 -0.097605415 0.024910165 0.2104072 -0.039334834 -0.22138278 -0.24003239 -0.083841555 0.45401934 -0.08673786 0.18570428 0.3899321 -0.029811397 -0.20181568 -0.19213027 0.25954026 0.17272466 -0.1182829 0.094022766 -0.30570647 -0.039577436 -0.49369797 -0.04166081 -0.033231884 -0.03688518 0.29747567 0.11372913 0.18040578 -0.24856378 0.04519066 0.403914 -0.12541686 -0.011524749 -0.21391083 0.18177125 -0.023696868 0.2753914 0.058998913 0.14241597 0.36492306 -0.12674847 -0.20248632 0.23278236 0.08062255 -0.3346216 0.40613574 0.15422152 0.09506083 -0.055425998 -0.3285855 -0.35144305 -0.27514717 -0.030804722 -0.36169168 0.31700516 -0.26506293 -0.018676132 -0.53423226 -0.027435001 -0.110957205 0.06585905 -0.17679022 0.26012617 0.24992633 0.3203036 0.20736451 0.10706605 0.2858478 0.10083615 0.12964194 0.2759017 -0.16388911 0.1098009 -0.58169603 -0.018251546 0.4128501 0.07966469 0.038918104 -0.2958816 -0.041384637 0.10898288 0.038049135 0.28393993 -0.4044286 0.15158284 -0.25813913 0.6101453 -0.1498533 0.2159992 0.023298264 0.25895494 0.12894028 -0.3346577 0.2039812 0.08586909 0.09530929 -0.02467268 -0.16150069
569 -0.3313697 0.13171093 -0.09660901 0.24836534 -0.13941815 -0.12599039 0.16960098 -0.1936552 -0.21288578 0.11413874 -0.84848344 -0.33330342 0.053081445 -0.030519187 0.35934663 0.021194067 -0.0718516 0.10879891 0.5183873 -0.37962133 -0.30985302 -0.27922946 0.13648826 0.29817367 -0.14839892 0.012538041 -0.046657585 -0.0013934976 -0.100694895 0.6199536 0.08571754 -0.25288847 -0.060420334 0.36639547 -0.18905942 -0.15272129 0.06397661 -0.25391856 0.39529017 -0.5114316 0.27053314 0.4146667 -0.04409811 0.27717245 -0.11454368 -0.012274703 0.45841625 0.29807764 -0.43076837 -0.11176362 0.46043837 -0.024366675 -0.348452 -0.46089187 0.43733418 -0.024938772 -0.043719 0.13808604 -0.50919336 0.04312907 0.39114103 0.43624145 -0.073077686 0.23396122 0.43523774 -0.12187527 -0.017829506 0.30351043 0.26225507 0.46879074 0.016427029 -0.40385175 0.53424 0.1654212 -0.13386431 0.45665568 -0.10128921 -0.07045757 -0.05117441 0.39974412 0.19649369 0.3610399 -0.01835167 -0.29636696 0.20728251 0.26039797 -0.7822196 0.23987229 0.29583323 -0.1681398 0.06509008 -0.009226168 -0.27165708 -0.36583042 -0.09579427 -0.066436365 -0.34634712 0.835384 0.38494664 -0.17303072 -0.3919314 0.1013209 0.27344954 -0.5959566 -0.02172532 0.14017189 -0.07778909 -0.4449355 0.37346563 -0.13181354 0.21896315 -0.3881883 -0.30655536 -0.34700826 -0.18066706 0.10280059 0.38184834 0.2927895 0.23424381 -0.041488986 0.16059218 0.025698157 -0.075573616 0.055735625 0.08114399 -0.10151837 0.12629952 -0.18024665
405 -0.07727492 0.20828195 0.3154147 0.019485343 -0.46260822 -0.57609403 -0.17829844 -0.049171634 -0.035393655 0.16371135 0.55978 -0.1910007 -0.23301482 0.22870368 0.03918752 -0.08590881 -0.46840355 -0.06068233 -0.065610245 0.46668017 -0.2634505 -0.026058914 -0.034971178 0.18965344 -0.20538922 -0.47031495 -0.32849827 -0.24867295 0.23063025 -0.054849826 0.6807686 -0.11154832 -0.029482046 0.11811811 -0.35597 -0.31717947 0.15094742 -0.058772426 0.14396651 0.44194433 0.18629925 -0.24924447 -0.050141644 0.3062269 0.08448976 -0.09727222 0.10478713 0.49314114 0.25816628 -0.18340045 -0.38959855 0.009857087 0.23863146 -0.11772834 0.16174297 -0.23244864 0.20156743 0.39822626 -0.18283817 0.06583567 0.20526516 -0.124224395 -0.09143315 0.029123645 0.1529444 0.052866086 0.21752381 0.15557902 0.0005885108 0.072954 -0.042684056 0.13881114 0.16710167 0.07638406 -0.02129091 0.47785455 -0.40630093 -0.067322075 -0.029256655 0.26363084 -0.29916748 -0.13407455 -0.06781284 -0.011096286 -0.09636198 0.007083258 -0.22644582 0.4614298 0.010614364 -0.26282695 0.15661299 0.1097954 -0.013381128 -0.07467077 -0.07546141 -0.0880093 0.10055896 0.763475 -0.005184537 0.08027389 -0.06884445 -0.018488564 -0.16477713 0.00582216 0.1208811 0.11376607 0.2347847 0.37739858 0.027937364 -0.56667787 0.03161813 -0.6190053 0.14324638 -0.093541965 0.010009899 0.1450578 0.23661377 0.1620805 0.061438702 0.26183546 0.083602704 0.044687174 0.25040522 -0.118078396 0.13934138 0.37419528 0.14105397 0.087806776
496 -0.2914191 -0.26548067 0.22193646 -0.053129125 0.0972808 -0.03779309 0.15023802 -0.024659928 -0.60165524 -0.1457768 -0.2923371 0.2501575 0.029701661 0.09525433 0.3042386 0.07649718 -0.27312002 -0.08662639 0.11686103 0.14588907 0.035738837 0.044841796 0.34747797 0.2241786 0.2826401 -0.061994873 0.050222293 -0.31398493 0.037311785 0.5429368 0.052168287 -0.30418777 -0.15579785 0.01808847 0.13801862 -0.086849816 0.5226543 0.1666845 0.07765217 0.026947474 -0.20862927 0.05616379 -0.45564425 -0.06291491 0.082969055 -0.34449762 0.0067385696 -0.051079977 0.25910696 0.008684045 -0.18509592 0.19149406 0.03171865 0.07621449 0.3431165 0.068138964 -0.0032337971 0.50406516 0.12644196 0.18269284 0.2363297 0.06840426 -0.13582389 0.08582594 0.075464085 -0.3972919 0.24081545 0.17451972 0.13483682 -0.28369203 -0.15484533 0.08692158 0.14963134 -0.32031766 0.3944591 0.3415641 -0.35689154 -0.16799702 0.05503197 0.10279703 -0.060481105 -0.41511932 -0.10031746 -0.27244094 0.5812552 -0.0075361375 0.20341405 0.22942749 -0.14264223 0.043161947 0.26928914 -0.02306501 0.20153998 0.11384354 0.3662932 0.18015774 0.1459631 0.13428003 -0.34805658 -0.56509435 -0.07307286 -0.1509836 0.3039068 -0.32386163 -0.19923326 0.123534165 0.13660303 -0.15650512 0.39082158 -0.25220528 0.3103794 0.1885605 -0.079690106 0.29456314 0.06289173 -0.3522481 -0.1398267 -0.29837376 0.36189803 -0.39590436 0.2939185 0.18063703 0.28704315 -0.22486445 0.20266679 0.07847313 -0.48260897 -0.36173156
1648 -0.65136975 -0.06518175 0.36966437 -0.021722673 0.020571731 -0.14240657 -0.022823276 0.2119451 0.0117834015 0.053289965 0.0883809 -0.3933884 -0.11745111 -0.67261565 -0.046387948 0.11558062 -0.39477307 0.22394964 -0.342234 -0.09711488 0.030404802 0.15596183 -0.39616442 0.0035568397 0.2124313 0.05479838 -0.10544955 0.03423853 -0.14965408 0.0788925 0.27277955 -0.33356836 0.17346494 0.0043505956 -0.350957 -0.33711794 -0.06323829 -0.33049616 0.07553246 -0.0025114976 0.09562531 0.15412089 -0.27344838 -0.36580923 -0.08494986 0.010844679 -0.08317484 -0.086016774 0.023765601 -0.28676 -0.10635887 -0.5675586 -0.19096285 0.26724634 0.08856839 0.18867633 -0.21649878 0.23274559 -0.13501564 0.320283 0.3525177 0.06503982 0.032348495 -0.05820887 0.19251484 0.16712211 -0.23608373 -0.08521133 -0.061260268 0.251568 -0.18805255 -0.33822978 -0.016047306 -0.04773763 -0.14815232 0.386519 -0.08517136 -0.13972002 -0.10491458 0.10685057 -0.35272697 0.009995694 0.04987209 -0.35972828 0.24562626 -0.3061582 -0.07190078 -0.6610074 -0.07968415 -0.11279445 0.1895808 0.0886604 0.22075655 0.15981878 0.029162897 0.23938887 -0.11936017 0.15382618 0.21788527 -0.08665701 0.0059239115 0.34028748 0.112634666 -0.30594042 0.06772394 0.27200118 0.52210915 0.09819026 -0.19800086 0.014777786 0.28875077 0.19875176 0.43791282 -0.07783803 0.057204902 -0.18158387 0.1501148 -0.42126235 0.19712254 0.16939044 0.14316009 -0.24757731 -0.3227278 -0.1147303 0.17095074 0.1442398 -0.006252334 -0.084741324
226 0.22480819 0.06746631 0.035531186 0.43024105 -0.10217493 -0.22688918 0.036616545 -0.47291923 -0.15828848 0.06464623 -0.23860371 -0.16987458 0.21085687 0.27034327 0.5112389 0.34132123 -0.028697977 0.013654588 -0.3746812 0.36052752 -0.28708357 0.21995991 -0.14598307 0.18811542 -0.26761422 -0.1480081 0.05221976 0.1971214 0.20667739 0.6141742 0.2732551 -0.23671652 0.3618004 -0.2525399 0.1877384 0.18695046 0.23839581 -0.36614114 -0.07545019 -0.2715209 0.14954098 0.4890474 0.1819358 -0.03038719 -0.24812478 0.29779646 0.07993734 0.39813316 0.090723224 -0.043334883 0.023233276 -0.09813796 -0.109613575 -0.08880854 0.25333336 -0.24455382 0.10279206 0.06578012 0.1170849 -0.22312559 0.21399881 0.16808046 -0.018678708 0.13695589 0.25984246 -0.16618736 -0.13698803 -0.12914741 0.08219468 -0.23565441 -0.16199222 0.018897595 0.439177 -0.47607103 -0.055520628 -0.074463055 0.11456008 -0.21687022 -0.28716886 0.048513535 -0.0022847645 0.026224531 -0.025997736 -0.013376371 -0.18987647 -0.32538697 0.019438544 -0.18141665 -0.26172924 -0.040904738 -0.20688972 -0.19410734 -0.17365351 -0.26369193 -0.10990693 -0.2604729 0.17907898 0.3221993 0.22714153 -0.34067523 -0.22092557 -0.043794256 0.76431245 -0.5313442 0.4151 0.048343662 0.2299631 -0.04381204 0.05084827 0.009573436 0.11107188 -0.4153322 0.024018496 -0.15256254 -0.1595343 -0.17719151 0.094542034 -0.27498186 -0.07314396 -0.13381758 0.31753007 -0.30838162 -0.11424813 0.07938865 0.302264 -0.3053583 -0.20215514 -0.093579754
1638 -0.37714726 -0.15658396 0.5636311 0.025531836 -0.3061516 -0.19529012 -0.1289442 0.28908798 0.09324104 0.1358539 0.21382083 -0.287575 -0.2602195 -0.530688 -0.07175372 0.22287862 -0.23812537 0.09000255 0.020046584 -0.10606859 0.05790517 0.12630348 -0.24283735 0.12567161 0.07831726 -0.02566306 0.066027924 0.106068194 -0.059330314 0.0033037881 0.21445695 -0.055925135 0.23656055 -0.14805697 -0.2085164 -0.241947 -0.13468854 -0.25167412 0.50945497 -0.0069458 -0.037781447 0.5063785 -0.29966715 -0.3270165 -0.31306288 -0.16640966 0.14446542 0.11153935 0.063517384 0.24757606 -0.032947876 -0.20057078 -0.34169102 0.20686477 -0.17407039 0.24315777 -0.049137067 0.13301769 -0.21414241 0.29450154 0.12848198 0.12543792 -0.15719633 -0.0523615 0.10066533 -0.0601449 -0.11001651 0.017950984 0.01920134 -0.011848564 0.13378812 -0.25081924 0.3481281 -0.11882986 -0.27050006 0.39329374 0.011658416 -0.055164218 -0.066180155 -0.093831085 -0.16708896 -0.09418348 0.0065766047 -0.46150607 0.2749008 -0.40308788 0.0756922 -0.42486596 -0.28805757 -0.2792677 0.3959177 -0.10301715 0.10753769 0.38334593 0.053907555 0.18143955 0.15349053 0.18099809 0.06817052 0.08303006 -0.06020444 0.22374435 0.03514854 -0.20335948 0.1499902 0.43552414 -0.033324648 0.1924417 -0.11202196 0.062872745 0.024341747 0.00398562 0.38085878 -0.42410594 -0.22990596 -0.2603739 0.052643333 -0.42538813 0.00055648084 0.4465537 0.22409165 -0.19429971 -0.13639697 -0.36131877 -0.05749108 -0.07751817 0.10653406 -0.103746906
1641 -0.54826087 0.1821809 0.43590474 -0.2680528 -0.027123054 -0.07259508 0.008099224 0.07352722 -0.063257314 -0.10773101 0.27101567 -0.41843483 -0.12129854 -0.31669304 0.29241374 -0.17487799 -0.07537316 0.1114008 -0.35885403 -0.39961797 0.09129837 0.022587355 -0.17904703 0.22767702 -0.04173201 -0.09944229 0.007322598 -0.06267724 -0.2571981 0.3704135 0.12224288 -0.0908512 -0.06572306 0.12193626 0.18570274 0.16685691 -0.21163742 -0.41118053 0.35853854 -0.047411133 0.18356352 0.1100661 -0.17386499 -0.44759953 -0.09175888 0.22865139 -0.018297678 -0.048004087 0.16785005 -0.007858927 -0.10372273 -0.23751947 -0.36683473 -0.16668706 -0.0055911434 0.23881863 0.3542094 0.09643791 -0.12035628 0.07391663 0.38324213 0.12145128 -0.0665894 -0.09636998 -0.022033196 -0.22764145 0.041956134 -0.08633025 0.040289234 0.26335502 -0.21750458 -0.012019678 0.2917084 -0.15378729 -0.54743254 0.43429434 0.17272998 0.09355363 -0.21615271 -0.53828794 -0.4883057 -0.3654305 0.16945663 -0.42033336 0.41204956 -0.44941452 -0.17375048 -0.35508418 -0.1941131 0.13655336 0.15190539 -0.18732889 0.47818968 0.10675958 -0.01854499 0.09033793 0.01493725 0.45862633 0.08868266 0.27771932 0.11924538 -0.043812964 -0.029597431 -0.5600655 -0.1906172 0.20530458 0.21252634 0.1653866 -0.1437747 -0.18098077 0.19964898 -0.19801322 0.21024786 -0.21542388 -0.07780161 -0.18036678 0.34257898 -0.04026967 0.04909323 -0.20330097 0.21681565 0.0538732 -0.14603063 0.29503986 0.087887846 0.051618103 0.027382625 -0.41062117
2148 0.02094796 0.2938383 0.25084394 0.03816161 -0.15125851 -0.107800044 0.13039155 -0.26670167 0.14149085 -0.013205402 0.044608943 -0.19529285 -0.08634941 -0.2383506 0.06362092 0.51801056 -0.3205213 -0.07091816 0.22904171 0.25351083 0.20504472 0.01113097 -0.07879566 0.511414 -0.03366695 -0.24164857 0.20200834 -0.066771574 -0.23258011 0.2795188 0.04058077 -0.4510393 0.033197246 -0.3467204 0.10544524 -0.16810012 -0.19324996 -0.035691347 0.18952887 0.3702842 -0.30083802 -0.023313789 -0.08475653 0.045922782 -0.34526026 -0.28150573 -0.0941319 0.10939512 0.2196726 -0.21099134 0.3690082 0.021922467 -0.21495876 0.4946746 0.28241488 0.1739643 -0.1407896 -0.07061444 -0.095870085 0.34044924 0.100220285 0.44220597 -0.097268365 -0.057169653 0.19013509 -0.11413909 -0.15148643 0.19064859 0.41215104 0.3835248 0.46099007 -0.12375659 0.33965963 0.1293417 0.11651975 0.15008092 0.06469279 -0.23826402 0.25219557 0.14535323 -0.4126948 -0.247966 0.51540625 -0.27356797 0.34781688 -0.30202577 0.4070158 0.33203194 0.24110328 -0.0865704 0.21951681 -0.25599813 -0.027332468 0.2631355 0.02788713 0.2743733 0.18956535 0.46784434 0.05241953 -0.23730294 -0.19480966 -0.22060664 0.13583778 -0.4746871 -0.064960286 0.14515266 0.023150224 -0.050467566 0.042592254 -0.19565628 0.27846953 0.06542173 -0.08321724 -0.23398206 0.51107043 -0.14533357 0.1894546 0.09869095 0.48788118 0.1805827 0.38819295 -0.5460438 0.15646642 -0.4553161 0.44728068 -0.281797 0.1325973 -0.16851315
6 0.092221074 0.15463716 -0.03792601 -0.3360653 -0.03265281 -0.027138986 0.024337005 0.2056422 0.29856664 0.2613973 0.07295994 -0.3762506 -0.5757066 -0.33207056 0.13174333 0.041989766 -0.21882065 -0.01200458 0.23083965 0.061333753 -0.11203004 0.12267585 -0.18473682 0.030489808 0.49328372 -0.2044895 0.26181045 -0.2871378 -0.099562846 0.09650919 0.48339733 -0.28589308 0.112027444 -0.041329 -0.33177024 -0.36152458 -0.108143985 -0.0961484 0.46197143 0.40206748 0.1489917 -0.04547084 -0.52016145 -0.31696808 -0.33158594 0.07475274 -0.08286238 -0.17616087 0.27370474 -0.09506763 -0.020186223 -0.14192541 -0.28792152 -0.10912618 0.11867334 -0.13538888 0.3580998 0.1154586 0.05132131 -5.206687e-06 -0.15567464 -0.04989472 0.20102973 -0.025865462 -0.089150324 0.02833396 -0.5077967 -0.08844204 0.3616015 -0.16713762 -0.0011482748 -0.22945963 0.29308295 -0.04170213 0.036290716 0.083199136 0.1967549 -0.11979411 0.19340739 -0.09573316 -0.29668847 0.082840584 0.24611641 -0.05496299 0.24225332 -0.14968756 0.28596166 -0.42037633 0.08575016 -0.3151513 0.45745546 -0.23016155 -0.025102867 0.0057986956 0.23196562 0.17130375 -0.10425645 0.21795748 -0.2770157 -0.351672 -0.22728597 -0.25105318 0.118500255 -0.58748966 0.124031655 0.44824588 0.07062503 0.22531815 -0.5777877 -0.10015915 -0.26038492 0.2902762 0.2521326 0.03748547 -0.097242594 0.04382166 0.2546969 -0.3487902 0.14882821 0.22407137 0.15932366 -0.1178683 -0.22877835 0.15616576 0.17637078 0.24986999 0.24794321 -0.018142765
476 0.13790669 -0.022274988 0.2801172 0.094934426 -0.5323919 -0.6495005 0.053985044 -0.35384145 0.010682249 0.42012256 -0.27924964 0.055289246 -0.19138972 0.26103556 0.32321787 -0.16899581 -0.18161231 -0.012329777 0.6578079 -0.36496192 0.14913617 0.5131248 0.13324402 -0.108627945 0.004554694 -0.064578585 -0.20701478 -0.068410434 0.2678347 0.20486729 0.2128751 -0.10891491 -0.020166818 -0.133391 0.1377762 -0.009421047 -0.31257817 -0.08091446 0.1890977 0.27450585 -0.13018309 0.34572482 -0.15328625 0.008778393 -0.33592975 -0.16080761 0.14439271 -0.031185504 0.07357685 -0.010645912 -0.28004935 -0.13338844 0.20643221 -0.0018762371 -0.004641273 -0.18398169 0.14972259 0.13769029 -0.26936758 -0.2843218 0.2349671 0.3860694 -0.20842037 -0.37202936 -0.118957944 -0.019633112 -0.440319 -0.26089665 0.22114083 0.13958001 0.017390503 0.14717124 0.4777514 0.2045388 -0.10281806 0.31137067 -0.024393644 0.21798106 -0.03934389 -0.10012071 0.18740854 0.043706812 -0.11572418 0.054834034 -0.060863264 -0.08312044 -0.45758417 0.10913594 0.02405476 -0.16961889 -0.013951257 0.21188632 -0.188654 -0.00520412 0.14902078 0.096375436 0.3360227 0.715019 -0.06687004 -0.18918265 -0.061911013 0.23309138 0.18085796 -0.12214734 -0.038048465 0.041980878 0.22753009 -0.2176182 0.07619855 -0.39839336 0.68415684 -0.34647855 -0.28660628 -0.39866778 0.2675082 -0.20833887 -0.15410608 0.0135514885 0.10066148 0.06510301 0.09677254 0.011167369 0.3680233 0.30551592 0.14632289 -0.14038849 0.062469155 -0.4486013
31 0.11735736 0.10602886 -0.26999986 -0.26350498 0.16263387 -0.14801843 0.1579235 -0.0006451115 -0.10068544 -0.23600684 -0.30190602 -0.0042768945 -0.15665066 -0.011898513 -0.21621695 -0.08862767 0.12848069 -0.12370107 -0.014315557 0.0035739755 0.1177249 -0.19937281 -0.0008206476 0.08352208 -0.036730148 -0.32967976 0.20009473 -0.41364577 0.30258456 0.40627086 0.37896714 0.14342234 -0.2638916 -0.042970914 0.064725414 -0.047989115 0.26297706 -0.4261782 -0.14748713 0.01939811 0.037173033 0.31633422 0.033694603 0.14422649 -0.06452934 0.20739044 0.24268569 0.27706426 0.0977195 -0.1661405 0.028904155 -0.07084197 -0.3025058 -0.073518135 0.28920674 -0.1003056 -0.36478725 -0.24988261 -0.033758752 -0.3403163 -0.17891315 0.04392806 0.021270838 0.034067713 0.19408101 -0.2104569 0.117240764 -0.39778155 0.14217748 0.39894187 -0.009041046 0.6767365 -0.05810657 -0.59800786 0.04043166 0.21117498 0.0688753 -0.27597576 -0.005398077 0.37194172 0.036638297 -0.27503273 -0.32269976 -0.053082854 0.25708085 -0.2123982 0.07659775 -0.36533943 -0.066387884 0.22686812 0.13673323 0.036171604 -0.19743557 -0.1938138 0.17078711 -0.30928966 0.33776724 0.6504815 0.07396666 -0.20929722 -0.06870962 0.22374348 -0.040024586 -0.37661827 -0.12733212 0.34630665 0.55319977 0.009302512 0.15362479 -0.15791786 0.005215423 -0.09277419 0.15748806 -0.52442807 -0.09707284 0.14952932 0.19765344 -0.077675834 0.32112506 -0.33181393 0.343331 -0.2147477 0.060265087 -0.053284526 -0.38119677 -0.13046683 0.108786084 -0.36854753
68 0.42966282 0.24509959 -0.11708484 0.16867274 0.26780558 -0.0326408 0.46187264 -0.097614236 -0.3392697 -0.51234484 -0.57250917 0.008438993 -0.19622438 0.06588033 0.21427149 0.14899284 0.13845769 -0.05312718 0.21257181 -0.11711894 -0.13373657 -0.20841597 0.23595765 -0.26855406 -0.16162944 -0.37631214 0.14385143 -0.2915209 0.3901181 0.1220187 0.0767359 -0.5094108 -0.017719725 -0.15892234 -0.17490216 -0.00027368622 0.09762336 0.026470132 0.057780758 0.09098407 0.24228497 0.50182617 0.110805444 -0.15987328 0.29929313 -0.14673543 -0.035887167 0.1902987 0.15135789 0.071855746 0.32674992 0.15426959 -0.17020819 -0.26340133 0.41483936 -0.2504196 0.24772674 0.12750383 0.41348606 -0.067393295 0.26786157 -0.041525193 0.22839428 -0.24595727 -0.41341895 0.055737495 0.06463799 0.2070921 0.12574346 0.3822125 0.41152057 -0.3149715 0.059077978 -0.35421613 -0.03581225 0.3663392 0.095602185 -0.2291538 -0.79556614 0.22333567 -0.01925334 -0.076290525 -0.06468578 0.049754623 -0.033491254 0.29509836 0.21756019 -0.03969688 -0.15037565 -0.13058284 -0.14304213 0.093300164 -0.06648223 -0.13105372 0.1933651 -0.33359542 0.3581011 0.39158115 0.04287968 -0.07046508 -0.043842964 0.10494432 0.15205376 -0.3324163 -0.19661357 -0.078733355 -0.031215033 -0.0074697863 -0.1762703 -0.4748208 0.3600585 0.02553711 0.21345422 -0.11928574 -0.15277815 -0.60894036 0.16207542 -0.072419025 0.33066294 0.16022536 0.3113821 0.057939596 -0.3162362 0.06340304 0.023258839 -0.45671353 -0.646028 -0.028249327
1645 -0.48712993 0.16795754 0.36269343 0.24298319 0.051041566 -0.35689935 -0.13854487 0.46231478 0.11548061 0.00031488092 0.21295655 0.05888981 -0.32493323 -0.7551268 0.3274681 0.25720978 -0.14444633 0.37623808 -0.15532234 -0.028892081 -0.08926069 0.10290438 -0.28295708 0.4482477 0.22671556 -0.26712933 0.13887078 -0.09874612 -0.0967971 0.1297683 -0.1018287 -0.115920655 -0.0631056 -0.2157802 0.014438935 -0.38090837 -0.07094288 -0.24669692 0.2761315 -0.021924496 0.3176111 0.09342246 0.006173573 -0.6629486 -0.10438896 0.25988024 0.022155343 0.036637384 0.28674275 0.011224927 -0.011064817 -0.336089 0.027344042 0.28596592 -0.1602281 0.15176837 0.15491997 0.25793108 0.18592024 0.07646987 0.13254799 -0.24417411 -0.17973486 0.30000556 0.21053 -0.118532635 -0.11464604 -0.18409428 -0.23342767 0.3822242 0.025810093 -0.42612785 0.35707664 -0.10155687 -0.31921077 0.2690196 -0.049085237 0.107720666 -0.25366673 -0.09677852 -0.046448372 -0.3264049 -0.49874324 -0.1593969 0.37862664 -0.057938304 -0.16900593 -0.21676955 -0.36074075 0.20014763 0.31645355 -0.08712654 0.3206082 0.069171414 0.34422287 0.21907519 -0.17630109 0.39642078 -0.103276774 -0.04733977 -0.12866376 0.15475461 0.08791923 -0.38549718 0.22939499 0.47858605 0.49131274 0.24722415 -0.23557052 0.05583595 0.06980366 -0.096127264 0.44273964 -0.0939108 -0.21081117 -0.34380382 -0.014683157 -0.1760373 -0.09045578 0.43815577 -0.008736456 -0.09743904 -0.3820517 -0.017393941 0.10403465 -0.46469665 -0.054376256 -0.14784986
696 -0.24349429 -0.121562555 -0.22918992 0.2602621 -0.13509847 -0.15246223 -0.12665278 0.23279002 -0.44966143 0.13596588 -0.03835885 -0.5523737 -0.38878754 -0.26191828 -0.1281652 0.09975436 -0.39123222 -0.45364594 0.041337226 0.64375675 0.08828714 -0.031149495 0.25887382 0.15744002 0.0052474933 -0.27632764 -0.0648153 0.17130178 -0.03063918 0.11718179 0.20050646 0.0020831788 -0.11550069 0.0927871 -0.07912679 0.61959136 0.3989904 -0.4508002 0.03815604 0.24940105 -0.35656965 0.18475525 -0.12883936 -0.31358087 -0.06911987 -0.2651666 0.10542769 0.34604725 -0.15292194 -0.033364143 0.20611657 -0.00073591445 -0.14692312 0.11867905 0.18446016 0.2529426 0.041707397 0.024983117 -0.08278426 -0.21053429 0.1432116 -0.16377558 -0.13834538 0.049198885 0.24363856 -0.6195258 -0.29658195 -0.15536495 -0.031370204 0.22987843 0.17599344 -0.020779517 -0.030726127 -0.40699232 -0.062378198 0.46553782 0.07346032 -0.09570012 -0.21353735 0.15298866 0.21557836 -0.050241586 -0.113969326 0.23002769 0.012200498 -0.045027792 -0.2899162 -0.050917286 -0.11324468 -0.07126461 -0.039239105 -0.30298012 0.3576903 0.15459578 0.44013196 0.026536435 0.35717887 -0.13392708 0.26747113 -0.12163062 -0.13982303 -0.03511464 -0.0077170567 -0.2655019 0.37028748 0.03532668 0.029437121 0.08731522 -0.035916984 -0.34310374 -0.27228183 0.11778298 -0.28773427 0.019636633 -0.47155714 0.50297433 -0.1435174 -0.07180573 -0.18539533 0.3146568 0.526759 0.31952545 0.023395868 0.060610622 0.11882016 -0.47452444 -0.32629025 -0.31305224
1443 0.26643306 -0.076557145 -0.15044926 0.29614818 0.052298833 -0.20370223 0.27796108 -0.22474284 -0.46034682 0.024283836 -0.49919522 -0.08850343 -0.16368487 0.0504199 0.55298907 0.30838728 0.17616971 -0.16775012 -0.22560489 0.3682774 0.17714587 -0.24635254 0.028377293 0.07608246 -0.46525788 -0.17614025 0.26024556 0.07340093 -0.06499519 0.24386236 0.17193285 -0.35319677 0.0043656775 -0.17204197 -0.11287999 0.5097367 0.33112937 -0.039787155 0.53708804 -0.059790555 0.067481115 0.4459968 0.14803557 -0.25463748 -0.0054771225 -0.15578775 -0.04172339 0.51710254 -0.0016147171 -0.028891925 0.07600071 -0.1719583 -0.33857873 -0.2530041 -0.20355484 -0.034876637 -0.07403751 0.13165757 0.06228158 -0.44268844 0.31404653 0.5861629 -0.03057412 0.112189844 0.32448426 -0.48528758 0.20691368 -0.13760221 0.07990877 -0.13087457 0.13823538 -0.09396182 0.22532722 -0.21249679 -0.20081443 0.5393993 0.1272579 -0.056662627 -0.44375 0.27089787 0.15905273 0.15258485 -0.14780906 -0.18019821 0.08469302 0.014708716 -0.1610062 -0.3511612 -0.33910343 0.29746974 -0.39158678 0.18183474 -0.07728419 -0.07740923 0.28941002 -0.020867893 -0.0015251042 0.34883812 0.19227126 -0.39800665 -0.08675956 -0.28754252 0.056148745 -0.46445438 0.08075288 0.10491814 0.3404056 0.039681543 0.24824089 0.03303285 0.22535747 -0.09053292 -0.003035327 -0.11389945 -0.18724817 0.050627496 0.31269234 0.2969936 0.14909185 -0.17408925 -0.0020918166 0.04173571 -0.07590261 0.43973553 -0.2826892 -0.09110859 -0.323602 0.08702946
510 -0.09982598 -0.025360893 0.43089214 -0.15486284 -0.1785659 -0.4729585 -0.15436283 -0.3236218 -0.08256919 0.39337406 -0.20077235 0.01942459 0.17094699 -0.26658538 -0.09891258 0.3293425 -0.10720622 -0.14656737 0.16996536 0.0903204 0.33200607 0.15013224 0.05182377 0.09829015 0.053025626 -0.05198584 0.12275184 0.25293055 0.38879296 0.14523534 0.7121609 -0.105304964 -0.3329652 -0.28621998 0.054560266 0.014081006 -0.056787122 0.013041189 -0.33842888 0.3952978 -0.100113295 0.4387696 -0.04683615 0.1534609 0.020664902 -0.1452537 0.051865626 0.18702982 0.19210315 -0.4204352 -0.18135637 0.26930964 -0.121668935 0.064588346 -0.3272611 -0.016892811 -0.026405776 0.24576287 -0.33910772 -0.22503628 0.0702073 0.11505825 -0.3417552 -0.045455363 0.11356556 0.100110404 -0.10983136 -0.11880174 0.22581078 0.41095042 0.029853277 -0.31927708 0.41982862 0.284378 0.23413804 0.2640297 -0.41319197 -0.20052332 -0.1389826 0.33501557 -0.19731309 -0.07090776 -0.026753064 0.120915554 -0.20679604 0.1583146 -0.31837317 0.18695524 -0.18210435 -0.2986837 0.10231743 -0.0034201923 -0.08854805 -0.40388507 -0.07259002 -0.008009393 -0.11777509 0.22687852 -0.29222232 -0.13582832 0.10466873 -0.3277243 0.21678793 0.3245399 0.0997443 0.061887883 0.4877709 -0.18264584 -0.05764358 -0.38540184 0.31930244 -0.055346318 -0.03270026 -0.22825219 0.07454789 -0.45269716 0.23350655 0.07499443 0.019868193 0.07659216 0.004413943 -0.5104301 0.33989987 0.013156714 0.11955915 -0.083351076 0.10227513 -0.29634157
1621 -0.5167534 0.0828929 0.3414081 0.14199439 0.17427167 -0.35079172 -0.11746055 0.7156563 -0.00078341423 -0.049310524 0.44383752 -0.10424734 0.06293285 -0.20457543 0.43313923 0.1511834 -0.25416315 0.19872838 -0.27870497 -0.2128123 -0.06775635 -0.040483132 -0.35650542 0.2302131 -0.2348976 0.006376154 -0.13944922 -0.14284156 -0.31312412 0.22056234 -0.04901214 -0.04979909 -0.11811501 0.010894537 0.01653046 -0.5278285 -0.042946015 -0.28898942 0.400428 0.059777945 0.18299012 0.15323438 -0.08107322 -0.25614884 -0.287609 -0.02222729 0.12922893 0.11005264 0.2726056 -0.29967096 0.06737364 -0.21789996 -0.30644333 0.49984863 -0.050776273 0.07191184 0.49303174 -0.06463161 -0.05206335 0.1896716 0.060359664 -0.15539615 -0.16062066 0.050322834 0.095173605 -0.030367846 -0.041846585 0.10011933 0.15463202 0.23577365 -0.14336066 -0.3152255 0.16369791 -0.16509439 -0.38967422 0.43770728 -0.0062693628 -0.10618399 -0.2028065 -0.2811659 -0.3422818 -0.13026342 0.13149945 -0.449487 0.29184046 -0.5828909 -0.21221434 -0.41378596 -0.25273955 0.020798042 0.080377854 0.1257992 0.17363593 0.103184186 0.040321767 0.3736714 0.19044319 0.21602044 0.0077208886 0.2666984 -0.049517944 0.208634 0.28218007 -0.5376218 0.13354918 0.20050626 0.0031199248 0.17602672 -0.028993089 -0.1868953 0.009926424 -0.19052841 0.42514923 -0.34776804 0.120482914 -0.31760728 0.24028978 0.016000124 0.3808021 0.1705263 0.1298429 -0.25061172 -0.17197871 0.17445709 0.10935456 -0.033486743 -0.1823861 -0.28613386
1722 0.04331098 0.1883119 0.47486427 -0.7118501 0.08435485 -0.37226847 0.26991522 -0.19887796 0.27230152 0.14376356 -0.051918577 -0.35110074 -0.021788625 -0.214493 0.2506525 0.42244864 -0.41176575 0.2984678 0.1575491 -0.43189618 -0.22658332 -0.0017480776 0.19095524 -0.16411093 -0.26650974 -0.562175 -0.02811489 -0.1887373 0.13630143 0.017257737 0.07163926 0.16172883 0.013067191 0.19264226 -0.088385254 -0.20118932 0.3033236 -0.07367461 -0.02876089 0.5116474 -0.06953039 0.27191153 -0.07094649 -0.10332351 -0.05714611 0.13099971 0.24134311 0.27175424 0.16922785 -0.09726814 0.26979724 -0.10049941 0.050222073 0.35032722 -0.16610858 0.094171464 -0.18843983 0.31385833 -0.13511898 0.10652548 -0.14764874 0.15353213 -0.20432603 0.16558333 -0.22248898 -0.19310258 -0.20245482 -0.12522303 -0.08208137 0.26187485 0.11316262 -0.09883986 0.27053013 0.18591514 0.2483534 0.414316 0.08961742 -0.07275342 -0.19083986 0.3116623 -0.27662915 0.10449015 -0.03958036 -0.5197447 -0.31711426 -0.2554769 -0.47862473 0.61721087 -0.009064127 -0.5839884 -0.1075571 -0.13036719 0.2806111 -0.41169682 0.1375556 -0.08141491 -0.077331424 0.22434823 0.26128644 -0.012766461 0.12724088 -0.007998982 -0.09657697 0.23905149 -0.07529222 -0.35084856 0.4910462 0.43287918 0.053721715 -0.3051904 0.2569045 0.26223853 -0.23258957 0.1729603 -0.3044152 0.013660805 -0.032280322 -0.0027317263 0.2817562 -0.18774664 0.25341254 -0.31676832 0.044355024 0.21577768 0.3767827 0.1391701 -0.2562237 0.23381889
2330 -0.5375283 0.12161391 0.17883095 0.059869066 0.12697351 0.18644753 0.18720977 0.15457742 -0.0029664622 0.35365823 0.11645759 -0.41246986 -0.40643105 -0.27618614 -0.08615497 0.0393971 -0.41172445 0.042698514 -0.421203 -0.13388069 0.049818728 0.23856089 0.041339494 0.10273982 0.08670435 -0.070806645 0.004993867 -0.46984312 0.0018476006 -0.1396661 0.24836777 -0.07470344 0.2151247 -0.25216445 0.15788276 -0.23035319 -0.2244614 -0.2198837 0.16382867 0.15946287 0.1522486 -0.047067594 -0.099900186 -0.28054538 -0.047756724 0.07039223 0.09645931 0.24316028 -0.011489668 0.101034895 -0.23069099 -0.42645392 -0.04536747 0.08318619 0.13666025 0.08007175 0.31464058 0.4569312 -0.2061887 0.3587603 0.06188989 0.35854787 0.16999851 0.20764358 0.41371042 0.29418874 -0.13679641 -0.08240476 0.11242048 0.16786847 0.070953555 -0.5703745 0.17618465 -0.14565048 -0.053719323 0.5752778 -0.4074805 -0.15344362 -0.14092606 -0.30392373 -0.3027552 -0.082040526 0.16378176 -0.21936525 0.5827236 -0.26198646 -0.05048556 -0.47712392 -0.29466844 -0.099976756 0.5322726 -0.015504755 0.18716495 -0.092646345 0.47805884 0.46224263 -0.3214661 0.10786695 0.09014596 -0.06629796 0.26953954 -0.016807966 -0.06386926 -0.034645732 0.2465788 0.36495355 0.40642852 0.17293936 -0.48344418 0.21534054 0.1878983 0.30476707 0.26202944 -0.024149705 -0.14654107 -0.022378145 0.3050336 -0.18431255 0.323045 0.1677193 -0.19123542 -0.5030823 -0.07475599 -0.21963556 0.23722297 -0.07811849 0.25105226 0.025102932
1478 0.21549278 0.19997166 -0.024414357 0.5004953 -0.077752754 -0.080641836 0.09822117 -0.12462624 -0.32912666 0.19595028 -0.4757753 -0.039737657 0.051338483 -0.14990136 0.21536803 0.1783283 0.03296441 0.040201552 0.1538636 0.25908923 0.03446909 -0.56451505 0.10736036 0.27520013 -0.6594414 -0.25384346 0.040893804 0.09415254 0.12776652 0.2568242 0.02730299 -0.07279656 0.078577995 0.04339671 -0.14832309 0.47473705 -0.031529546 -0.5003185 0.20551835 -0.22264038 0.29013452 0.503846 -0.22365998 -0.17964368 -0.056516 0.073681116 0.06286281 0.4256747 -0.13413997 -0.21505277 0.031280544 -0.14166074 -0.20245554 0.015048644 0.1446688 0.08601968 0.26151186 0.025237955 0.14243095 -0.30068251 0.2802035 0.3127697 -0.1324263 0.15877582 0.5955784 -0.19770776 0.033233665 -0.12016141 0.18858974 -0.089009255 -0.1936715 0.039913066 0.37660056 -0.3144138 -0.18930896 0.29341665 0.40726218 -0.18610017 -0.19272856 0.26756042 0.09087052 0.15295611 -0.24470742 -0.15029895 0.034507982 0.26951057 -0.1669136 -0.28925177 -0.17483923 0.010873054 -0.20472108 0.02561696 -0.4361102 -0.06317176 0.23714043 -0.26709124 0.09176981 0.16881227 0.23175877 -0.26830488 -0.23230968 -0.28627825 0.27621886 -0.59078175 0.33906156 0.58516157 0.30717245 0.048254456 0.13280058 -0.015641537 0.07353626 -0.16434565 -0.088405 -0.089094326 -0.33226344 0.36802375 0.24392089 0.17914581 -0.016352555 -0.004163245 0.19775505 0.20397584 -0.2110779 0.335884 -0.13871357 -0.3366064 -0.31915116 0.020037754
1476 0.24866562 0.086330235 -0.3231154 0.31418517 -0.06978629 -0.1961571 -0.121156596 -0.18951015 -0.06362708 0.06863951 -0.60767424 -0.24318054 0.050378233 0.21325588 0.6803868 0.4412116 0.048874214 0.14448248 -0.25755027 0.10591958 -0.016233778 -0.34859383 0.0027330962 0.42672938 -0.5151519 -0.01995342 0.046092957 -0.24813889 -0.40760967 0.12436894 0.17963928 -0.3919234 0.35967565 -0.1753548 0.0034890678 0.32909185 0.01775086 -0.32871675 0.27642697 -0.12783156 0.05072996 0.36842448 -0.49746674 0.08433077 0.007145815 0.02865591 -0.030936211 0.4127451 0.023248717 -0.031810228 -0.05507077 -0.040246397 -0.11373185 0.14711298 -0.11035319 -0.23929787 -0.10834158 0.32914317 0.060617648 -0.24252279 0.41231722 0.21542577 -0.5625838 0.12389841 0.3078547 -0.1795171 0.24773575 -0.32492208 0.026106633 -0.12391392 0.042863417 -0.09200503 0.36553755 -0.39378715 -0.22585376 0.046488613 0.2287251 -0.35006264 -0.32883453 -0.19279261 -0.09116725 0.03462882 -0.13934828 -0.06513837 0.20046759 0.2673801 0.1417734 -0.16055234 -0.4196178 0.15082793 -0.08767581 0.04790293 -0.32641444 -0.4284528 0.20785548 -0.510748 -0.10150423 0.30004707 0.32737553 -0.082844384 0.048407324 -0.030201178 0.15169553 -0.25823778 0.30724895 0.23791 0.31920618 -0.14379476 0.034346875 0.084205724 0.0076501016 -0.28859904 0.2376958 -0.30273476 -0.40368533 -0.05541557 -0.04483665 0.085593194 0.13155934 0.43742585 -0.011126443 0.0004676443 0.104897 0.26502287 0.067811996 -0.26130524 -0.52926487 -0.13021465
2159 0.121062286 0.22723748 0.18388517 0.07387829 0.05706038 0.06734508 -0.41692764 0.2860163 0.02424131 0.25647074 0.36449316 -0.16585846 0.14790383 0.23052856 0.043642208 0.07728809 -0.5590196 0.47974378 0.26732266 0.3450861 -0.049023606 0.29534104 -0.027217397 0.2510872 -0.077208534 -0.14046158 0.30332306 -0.09263871 -0.15275753 0.26372674 0.154966 -0.18044719 0.068212606 -0.19637857 -0.49173778 0.2420794 0.30476224 -0.33090678 0.5699455 0.011284539 -0.47198662 0.4288462 -0.21896616 -0.41890574 -0.060411572 -0.07801228 -0.095880754 -0.14966694 -0.29418567 0.21845981 0.0069801896 -0.06070139 -0.1686546 0.19141088 0.17286904 -0.030391816 0.006376147 0.4458742 0.48906448 -0.12888941 0.0078055016 -0.16330107 0.25101137 -0.13517067 0.123587005 0.079360865 0.28326887 0.10585974 -0.008224002 0.36265206 -0.0005898607 -0.16636905 0.413823 -0.0313082 -0.1807315 0.06848976 0.26413253 -0.049704533 -0.18636292 0.10468735 -0.24940407 -0.006225238 0.19330665 -0.34527567 -0.16604368 0.101910226 0.21235105 0.03555176 0.15620446 -0.19943728 0.16605158 -0.2131792 0.28979266 0.23194695 0.15886095 0.39586392 -0.23097396 0.076666094 -0.010121277 -0.27254286 0.30675435 -0.14088401 0.25366214 -0.37799212 -0.047154967 0.08553689 0.33723792 -0.202251 -0.3498459 -0.64547914 -0.097063415 -0.2358167 0.121782236 0.17892675 0.0942187 -0.14884514 0.31914085 0.19638965 0.33004668 -0.1899898 0.56474024 0.042307086 0.03458483 0.29682744 0.032602645 0.22837107 0.2257095 -0.04099511
1460 0.17945154 0.21509703 0.0077474667 0.32518503 -0.15664983 -0.22885673 0.26057798 -0.23647358 -0.33779058 0.0030213057 -0.38998368 -0.060228445 0.050757322 0.040884476 0.5515789 0.16557533 0.16319712 0.08607994 0.06420977 0.21750978 -0.10243447 -0.43406147 -0.0060047815 0.26026496 -0.5129738 -0.042313702 0.083010145 0.19204012 0.1472741 0.47769228 0.020236693 -0.4413406 0.11533018 -0.048033528 -0.21105477 0.37625197 0.01097467 -0.6156894 0.3312807 -0.14254253 0.22239082 0.38092563 -0.06747007 -0.011580641 0.28815508 0.1604512 -0.051159035 0.5720198 -0.0031279025 -0.1654051 0.035404377 -0.024838489 -0.08292343 -0.18474136 0.032566566 -0.17474334 0.06418621 0.10434863 -0.018729657 -0.25786543 0.35467944 0.52219397 -0.24763209 0.23548193 0.3142893 -0.39567232 0.041734096 -0.16025545 0.37500793 -0.08764681 -0.4216652 -0.058291495 0.3558589 -0.3590151 -0.093933105 0.23039313 0.29921797 -0.34946778 -0.22776742 0.2798756 0.17549689 0.103859134 -0.06485793 -0.038361173 0.09261583 0.13593394 -0.075489976 -0.20301983 -0.20421568 0.07033948 -0.26848182 0.06847738 -0.24000028 -0.28452653 0.13761626 -0.21465304 0.051918663 0.22944532 0.34161246 -0.1321566 -0.27025512 -0.14864752 0.18360491 -0.49533823 0.36253184 0.19338153 0.40883732 -0.13685887 0.29140595 0.09950225 -0.059210777 -0.15581225 0.18134956 -0.095862746 -0.505282 0.10968296 0.33380088 0.13098483 0.1095537 -0.11214545 0.1950041 0.031298324 -0.22503884 0.29549316 -0.28945017 -0.26263788 -0.16534731 -0.07955964
2197 -0.23450017 0.23212354 0.22727308 -0.031001648 -0.15028411 -0.11478522 0.27334875 -0.3404865 0.07536373 0.3040286 -0.27590486 -0.07650258 -0.113172665 -0.19762316 0.12903495 0.46008483 -0.36737522 -0.14726879 0.32227507 0.18619421 0.039286595 0.28510174 -0.27117652 0.41740263 -0.11636738 -0.27552158 0.08056508 -0.35736877 -0.573735 0.5780035 0.35686943 -0.58198106 -0.2009076 -0.24075341 0.17383341 0.01746407 0.07201907 -0.19310781 0.23455432 0.20791738 -0.46092123 0.064500466 -0.3046801 0.15042564 -0.39827457 -0.27462134 -0.25021967 0.14796048 0.34855482 -0.07750261 0.3418208 0.22085612 0.041361593 0.32890823 0.13029449 0.2367317 0.021741595 0.032417983 0.08992546 0.4946969 0.04372278 0.13672368 0.115737885 -0.008206135 0.22939259 0.07953079 -0.08015002 0.2663 -0.054702707 0.11298833 0.13526845 -0.20727806 0.4357295 0.2914717 0.23571956 0.07072075 0.06919222 -0.1411363 0.21436599 0.15942408 -0.3351495 -0.1991052 0.6003554 -0.18571812 0.44330162 0.12246073 0.2617646 0.3895418 0.080628924 -0.23265415 0.1277402 -0.30944955 0.1368148 0.15074162 -0.032153632 -0.10368846 0.20362064 0.53472626 0.08495271 -0.35281873 0.08899334 -0.12166207 -0.19230641 -0.30627507 -0.24561726 0.06559173 0.39140096 -0.057634577 0.2280904 -0.26552644 0.26400304 0.25514147 0.28693053 -0.19810963 0.12284077 -0.11111591 0.5248238 0.26663253 0.060273774 0.17455493 0.27658218 -0.022623502 -6.3271626e-05 -0.344449 0.32819974 0.09190344 -0.015643155 0.017453626
1444 0.19471616 0.15392113 -0.0011004594 0.37951598 0.18861823 -0.19001324 0.14521739 -0.22753029 -0.20308155 -0.011517108 -0.2508303 0.03696934 -0.31332314 0.043381013 0.35217375 0.27664465 0.15589772 0.04865126 -0.13346583 0.21798456 -0.17529131 -0.36850718 0.124030724 0.35667533 -0.6092563 -0.19915628 0.2189067 -0.03571264 0.16509905 0.411441 0.23717605 -0.46933678 0.16462377 -0.12361672 -0.16140646 0.58504623 0.2436884 -0.4914683 0.23537028 -0.07285923 0.19972616 0.4681205 -0.116326876 -0.03540558 0.0058398996 0.13553037 -0.2239029 0.59299916 -0.014308657 -0.036235135 -0.057813354 -0.24282283 -0.087739386 -0.13846746 0.122673616 -0.28210196 0.045095626 0.21066873 0.072193265 0.053360853 0.241016 0.592727 -0.26976046 0.07877608 0.28685433 -0.18395062 0.29114228 -0.117251374 0.029883368 -0.12536046 -0.37755683 -0.12875481 0.5018332 -0.6463527 -0.079133265 0.14613095 0.15654527 -0.16718122 -0.10443553 0.43769568 0.14512299 0.24707617 -0.22755519 -0.03149005 0.08667309 -0.031469654 0.0017746267 -0.17753306 -0.2621315 0.14404154 -0.11262195 -0.07206853 -0.16768806 -0.33896405 0.22041139 -0.25940877 0.34234172 0.21142139 0.062581524 -0.40030462 -0.3469675 -0.32377774 0.20772237 -0.48490942 0.4423123 0.4964449 0.13014534 0.2670563 0.21922049 0.032424897 0.1548354 -0.05538755 -0.09456788 -0.24486223 -0.15112607 0.11585342 0.32500395 0.09315612 0.19114868 0.054048315 0.033960264 0.10997994 0.049227715 0.21819627 -0.101485126 -0.39672077 -0.3514342 0.15393008
1430 0.34916696 0.23338105 -0.13356815 0.4422061 0.13346586 -0.15843827 0.08978089 -0.17220993 -0.29506558 0.019185355 -0.33121163 -0.13598889 0.06096038 0.22589093 0.70711887 0.06417386 0.17572041 -0.00030845698 -0.37355894 0.5172356 0.030907905 -0.115730114 -0.04533331 0.40067104 -0.4251387 -0.20259613 0.1142096 0.00095879217 0.22732209 0.46871877 0.31170234 -0.37652025 0.084985636 -0.16847059 -0.40725684 0.36719257 0.24316274 -0.29137284 0.45051506 0.020318644 0.28021818 0.53163546 0.1467113 0.13097458 0.18362151 0.022763627 -0.061152957 0.32615063 0.11761361 -0.3419885 -0.16247994 -0.030270547 -0.18950108 -0.21287338 0.02330071 -0.2937917 -0.17527516 -0.025866112 0.18660256 0.19756292 0.18497257 0.5824186 -0.34221172 0.32437408 0.39146674 -0.18480164 -0.01542318 -0.07210377 0.3219857 -0.2359457 -0.25238132 -0.25949195 0.27574793 -0.8183501 -0.029621962 0.17866199 0.17370006 -0.08641628 -0.2037339 0.22842647 0.026826719 0.30696577 0.08001367 0.101645686 -0.046160966 -0.08915481 0.12805025 0.15972574 -0.22236013 -0.12940028 -0.07576541 0.10494496 -0.31971458 -0.16182138 0.257847 -0.25372753 -0.0109905 0.18747771 0.2360655 -0.20899907 -0.39843458 -0.14155206 0.26738954 -0.5985478 0.36635402 0.17436558 0.35244116 -0.2966374 0.17199287 -0.15821096 0.19445726 -0.0564694 0.040927608 -0.29749325 -0.2551001 0.025135685 0.03058123 -0.16508809 0.024111768 0.12753251 0.45737436 -0.30209005 -0.20441347 0.26274765 -0.087915346 -0.3170639 -0.08950138 -0.20097649
1330 0.13481858 0.09914537 0.23494107 0.17875037 -0.27681655 -0.10931953 -0.121747166 -0.26091975 0.11932672 -0.13990971 -0.2803773 -0.10795406 -0.32570508 -0.05718176 0.13519971 -0.2577611 -0.08576348 -0.11186481 0.5192375 0.013698427 -0.21119434 0.32598034 0.116411686 0.12240349 -0.06724582 -0.174894 0.097171225 -0.3376573 -0.18118283 0.4435164 0.42470703 -0.09075731 -0.34327352 -0.08703019 -0.328095 -0.18899508 -0.6286407 0.23116578 -0.3686661 0.25941166 -0.32108486 0.12706192 -0.15352045 -0.015663886 0.2905361 -0.031094292 0.16091605 0.4078393 0.06747628 -0.12446201 -0.27165335 -0.10489205 -0.20084703 -0.11037243 -0.07603309 -0.6964853 -0.09601692 0.5471706 -0.23367766 0.18481092 -0.14903446 0.2070779 -0.1210097 -0.27084026 0.33161893 -0.15760283 0.16628417 0.12208038 0.08354029 0.057434738 0.10308011 -0.103811055 0.714685 0.3490512 0.2794999 0.21700563 -0.033329576 -0.06444456 -0.32992095 0.10846081 -0.0080893645 0.10358704 -0.054994907 0.093601406 0.5302856 -0.063577995 -0.51031774 0.014860479 -0.03028122 -0.5403912 -0.4130429 0.06630209 0.45815343 -0.008167301 0.32985783 -0.034027047 -0.19807018 0.023007587 -0.034047812 0.27639058 -0.32658705 -0.09987577 -0.20846419 0.076889694 0.2859235 0.19440468 0.20290153 0.10442451 -0.42299312 -0.6461937 -0.09404409 -0.38112476 0.3888532 -0.38606727 -0.15319575 -0.029119307 -0.03995936 -0.0925498 0.22897607 -0.09485685 0.17608964 -0.47576508 0.33076704 -0.23360714 0.12614658 0.13517062 0.106947996 0.078062005
1646 -0.43908253 0.20811956 0.45163265 0.22482157 0.09693235 -0.46963796 0.09955826 0.35187826 0.14131998 0.10160288 -0.031717572 -0.038638722 -0.29015765 -0.57118106 0.15533523 0.08853639 -0.37936106 0.08904108 -0.26576528 -0.20036642 -0.14016053 0.24586298 -0.30007765 0.08968799 -0.27698973 -0.0021768427 -0.052591264 0.10072794 -0.092523046 0.07976928 -0.06559105 -0.26409113 0.051913876 0.21754469 -0.048849177 -0.2541432 -0.09626871 -0.2994007 0.5595067 -0.13590717 0.07615774 0.23018117 -0.037555464 -0.69782865 0.0020243472 0.106859386 0.038042225 -0.10742512 0.07812785 -0.20686397 -0.21767612 -0.18821383 -0.2587045 0.09526774 -0.1659595 0.06095868 0.16942346 -0.008961644 -0.118809804 0.040968787 0.1403419 -0.13177033 -0.4197773 -0.11664701 0.15545024 -0.07069019 -0.1550798 0.1306239 0.087256186 0.15470435 -0.11991659 -0.34958953 0.50528526 -0.15045325 -0.15422808 0.22030763 -0.51247346 -0.16375533 -0.07138165 -0.29623458 -0.343866 -0.26939353 0.05708045 -0.3213894 0.38109237 -0.27526116 0.15322804 -0.56903243 -0.23788817 -0.053004123 0.51868767 0.24370976 0.37178284 0.19467698 0.1728151 0.19971764 -0.09139301 0.44364554 0.01868544 0.018795086 0.12447704 0.17385197 0.17364393 -0.20787129 -0.014139368 0.47425807 0.27268556 0.36500552 -0.23181465 -0.20965248 -0.0146628525 0.10969629 0.55745655 0.07149012 -0.23343296 -0.090448566 0.14382415 -0.19638014 0.056260962 0.52624106 0.35234678 0.10581656 -0.3313767 0.24062546 0.20692585 0.02693499 0.09919614 -0.33937898
1446 0.2127522 0.1171088 -0.05041823 0.4258402 -0.0010280884 -0.21031977 0.30377704 -0.20184554 -0.18496504 0.09916763 -0.42970258 -0.118103534 -0.112052865 0.032450963 0.474157 0.25563812 0.0680086 0.085367136 -0.029574865 0.21036874 -0.31282622 -0.27956197 -0.17313531 0.311191 -0.48502958 -0.12729298 0.056813367 -0.09938777 0.04111768 0.42427874 -0.02884992 -0.31818044 0.13875228 0.07044091 -0.23978798 0.49148688 0.28461683 -0.23700595 0.3429148 -0.034512054 0.1690746 0.5508244 -0.112394236 -0.060028356 0.13361682 0.24353926 -0.052432083 0.3535445 -0.17391066 -0.2358447 -0.03666777 0.035575297 -0.11641983 -0.18463418 0.04689873 -0.4000874 0.036658045 0.1346737 0.06272322 -0.068642646 0.31600407 0.42196205 -0.2200957 0.18882623 0.34812695 -0.1961306 0.0510068 -0.36922902 0.15875047 0.036927354 -0.17493874 0.058087394 0.26152575 -0.45260507 -0.090849 0.16455181 0.116950974 -0.31989127 -0.43132073 0.09521089 0.08074805 0.3958643 -0.11512581 0.008548486 0.07664197 0.044228956 0.08184342 -0.39365184 -0.14905985 0.014718077 -0.19743493 0.20085397 -0.12419186 -0.056325212 0.061974782 -0.36737543 0.20741981 0.29879186 0.25525418 -0.34330618 -0.15754943 -0.089457326 0.34532353 -0.6425852 0.5105498 0.29684317 0.5211662 -0.12906179 0.36398914 0.14094552 0.17390129 -0.1765929 0.047347963 -0.20588703 -0.40357116 0.03500758 0.25883234 0.004171913 0.05156217 -0.14665434 0.03569373 -0.13730568 -0.25064197 0.11602443 0.009034614 -0.23624922 -0.35123193 0.08858508
568 -0.15309629 0.33420593 -0.18771896 -0.0812694 -0.05131049 -0.33352697 -0.07454994 -0.26638955 -0.20974483 -0.044818334 -0.55032665 -0.20196672 0.23236153 -0.21909907 0.42427117 0.035841223 0.057028204 0.119035244 0.6169345 -0.2324776 -0.26950407 0.01819396 0.091583505 0.3472675 -0.055251364 0.02325137 0.27590293 -0.19841999 -0.024843954 0.62370884 0.04644849 -0.24421914 0.19898976 0.25991002 -0.1716161 -0.39210322 -0.065085866 -0.19146791 0.607793 -0.3455315 0.32724577 0.14272083 0.11045859 0.40795946 -0.22589883 0.013763957 0.55381984 0.3771116 -0.3244895 -0.33181602 0.4848852 0.23867214 -0.585119 -0.34695116 0.037519418 0.24797326 0.08942054 0.07506043 -0.42831048 0.12491503 0.36141434 0.36354843 -0.08517778 0.026484199 0.35956645 0.08339109 0.11833067 0.11347293 0.24728207 0.39552295 0.069823444 -0.60207075 0.5698345 0.2666826 -0.18220393 0.6514415 -0.26746616 0.1655156 -0.29233214 0.42248097 0.26061943 0.070523515 -0.032664973 -0.40235272 0.16249482 0.13133088 -0.64670867 0.1396195 0.40161446 -0.045008846 0.02684644 -0.083226755 -0.2981645 -0.28793168 -0.19872811 -0.12526612 -0.10942737 0.39158162 0.47066078 -0.014967493 -0.2018854 0.17154957 0.36533025 -0.63641536 0.30140254 0.25781626 0.08813201 -0.27596554 0.4787494 -0.42966032 0.07993321 -0.4327542 -0.32950434 -0.31262794 -0.049508646 -0.037270244 0.29900694 -0.0808835 0.33053368 -0.071077205 0.15106456 -0.10109693 0.09476116 0.1325675 -0.11523163 -0.12108504 0.026275352 -0.31414855
1417 0.31474808 0.23767966 0.011045271 0.41572618 0.09053259 -0.19108777 0.015376837 -0.17713077 -0.39218476 0.08624142 -0.4673161 -0.0543664 0.03081557 0.11047576 0.53703725 0.18913995 0.082931206 0.0375127 -0.09983144 0.31884086 -0.08168163 -0.505509 -0.06128702 0.5141596 -0.36863217 -0.19068001 0.12598044 -0.19549446 0.24428973 0.33092782 0.13887079 -0.29439402 0.004623588 0.049427282 -0.18120374 0.34060642 0.085035615 -0.25263283 0.45129415 0.10023699 0.25637984 0.5563758 -0.08785762 -0.020470548 0.08194304 0.06356226 -0.21914975 0.40031528 -0.07294197 -0.09374365 0.0821018 -0.18376508 -0.08896425 -0.2546703 -0.012318776 -0.2793278 -0.020654188 0.1358232 -0.050405968 -0.10424876 0.21953826 0.60379153 -0.27432874 0.2559007 0.029221635 -0.19357014 0.03922937 -0.112957105 -0.005074111 -0.0019991475 -0.32158008 0.074587 0.10417763 -0.48876202 -0.036553748 0.29741672 0.28057507 -0.4333936 -0.24097207 0.39942193 -0.039913982 0.25323275 -0.17829409 -0.07301539 0.112395346 -0.013119265 -0.043244984 -0.19648369 -0.1477097 0.29696003 -0.27576393 0.12199956 0.12405446 -0.44766128 0.37065357 -0.27622858 0.20614564 0.24836051 0.027663069 -0.23005928 -0.10182357 -0.21693361 0.34971568 -0.6526699 0.2541301 0.32971987 0.3268802 -0.11829017 0.10231035 0.13237467 0.08252728 -0.016086724 0.17541116 -0.15952243 -0.44030988 -0.021630844 0.26960993 0.18256845 0.12211359 0.10896562 0.18552704 -0.04196295 -0.13439982 0.12039339 -0.14766121 -0.38606372 -0.35120702 0.036761466
1573 0.077719055 0.25421926 -0.12783663 0.41618183 -0.24014382 -0.5090505 0.118301906 0.13847138 -0.27151912 -0.095562585 -0.20371594 -0.26576802 0.16246785 -0.2508873 0.38582996 0.14502276 -0.28715348 0.3483032 0.07145871 -0.12519644 0.39509004 -0.07851346 0.03021863 -0.2587689 -0.06450171 -0.33226925 0.021610681 0.08641982 0.26707348 0.12741755 -0.18428499 -0.39926666 -0.033105925 0.12593393 -0.17774552 0.36144587 -0.017610187 -0.4639825 -0.19806364 0.17997584 -0.34948635 0.2384111 -0.3548724 -0.09361469 0.17026307 0.34216478 0.43082237 0.36008158 0.38629413 -0.036972906 -0.076877296 -0.1697192 0.114787295 -0.37699404 -0.075389504 0.25434396 -0.046122834 -0.012115089 0.13871704 -0.48823774 0.5329533 -0.21798277 -0.3131309 0.34016564 0.5263113 0.054979283 0.030001216 0.019835483 0.39160085 -0.17626604 -0.3624704 0.13101785 0.060957074 -0.2641247 -0.06957861 0.3972709 -0.17399548 -0.4239955 0.115664765 -0.012937693 -0.47165632 -0.27011117 -0.12188829 0.008713824 0.26719975 0.6307029 -0.03436207 0.09392148 -0.13100536 0.023216393 -0.19324605 -0.010157545 -0.07488032 -0.1640244 0.3317408 0.21797779 -0.05183731 -0.072221875 0.22494236 0.30408993 -0.29138824 -0.18534058 0.19828707 -0.65649205 0.16801059 -0.1529753 -0.0035087618 0.54821026 0.24452478 -0.04273528 -0.017763682 -0.38518834 0.27116168 -0.059125118 -0.40625554 0.60517496 0.22240919 0.08933558 0.035731323 0.015748015 0.2215325 0.32415423 -0.13409685 0.09682717 -0.20832011 -0.12600085 -0.054477755 -0.13150649
399 0.11235319 -0.1174592 -0.06191297 -0.041016124 0.028747277 0.03646858 0.40742436 -0.12396522 -0.12763013 0.2586839 0.3455873 -0.29462907 -0.36421946 -0.21613412 0.3622635 -0.30520907 0.024934655 0.40191662 -0.036498085 -0.101312555 -0.13244283 -0.010199715 0.11387889 -0.12859546 0.48597956 0.12649566 0.1947515 -0.29610488 -0.6086045 0.11864743 0.31568018 0.24528748 0.3950406 0.07103074 -0.1916029 0.10613916 0.1601774 -0.0747348 0.16455482 -0.11863074 -0.060112834 0.21875 -0.43006933 -0.08381682 -0.039327223 -0.24135222 -0.06368845 -0.23840092 0.1274843 -0.08697236 -0.32337403 0.07265466 -0.029740343 -0.03490688 0.20354839 0.23634829 0.023900747 0.06564633 -0.13911848 0.20373763 0.13666153 0.14939071 -0.5971341 -0.21664707 -0.18095346 -0.29284438 -0.2997464 -0.055199813 0.16602437 0.048198357 -0.1863912 -0.056256793 0.031947866 0.15821211 0.23807657 0.29377624 -0.116820686 -0.3266992 -0.45484707 0.110771626 -0.56171966 0.24149834 0.17956212 0.4842076 -0.13372412 0.12948297 0.37036645 0.21283267 0.12761065 -0.3252762 0.38417608 -0.23989256 -0.2799906 -0.05021714 0.4265215 -0.11909358 0.08021893 0.47907937 -0.12949297 -0.6347628 0.23214336 -0.20831028 0.33670193 -0.31159124 -0.1640719 0.3034464 0.16302505 0.07140955 -0.17940886 -0.6690125 -0.06183265 -0.0014882355 0.025935834 -0.127686 -0.17360884 0.081428796 0.2930544 -0.39429706 0.13941917 0.032443296 0.24686722 -0.24060033 0.046214733 -0.22237512 -0.005031155 0.234834 -0.036614444 0.019714091
1423 0.17630674 0.0032244872 -0.10678619 0.3168724 -0.1975797 -0.4151484 0.16357237 -0.1818566 -0.24268372 0.10491723 -0.5296083 -0.13988487 -0.027303638 0.14692716 0.5118468 0.34408724 0.17553173 -0.19792825 -0.029400615 0.40686932 -0.083793454 -0.54931086 0.056207284 0.47684896 -0.27147552 0.07551618 0.1627918 -0.022523575 0.10629418 0.3552259 0.060743358 -0.27185705 0.1170149 -0.04236443 -0.25445655 0.39374322 -0.061228827 -0.19548248 0.21940702 -0.11048692 0.1377748 0.39959276 -0.1994491 0.13118465 0.08486363 0.24831104 -0.15793142 0.44328436 -0.121935666 -0.07710415 -0.048810616 -0.2662499 -0.02420392 -0.3105237 -0.1092047 -0.0877595 -0.04018381 0.19598547 0.12159379 -0.09323754 0.31395614 0.40874308 -0.28211024 0.2779343 0.21982883 -0.31080413 0.09558142 -0.077885374 0.065826334 -0.07503711 -0.2843719 0.045655 0.28219327 -0.40475488 0.01945161 0.26769564 0.13217458 -0.39061886 -0.26949218 0.22710387 0.02153844 0.09818234 -0.11036634 2.0189482e-05 0.016879618 0.077983364 0.11479682 -0.2369225 -0.19827117 -0.00757424 -0.14590164 -0.17641695 -0.31719694 -0.3473058 0.31681314 -0.1029123 0.016429977 0.18355043 0.18453768 -0.1719763 -0.078247026 -0.33515376 0.30910507 -0.6603955 0.16095865 0.3319211 0.51162916 -0.13144849 0.29224035 0.011840886 0.028001495 -0.1724181 0.14876898 -0.2738669 -0.46445242 0.016178573 0.2298216 0.32949603 0.22584282 0.032083277 0.2645976 -0.17228259 -0.05395431 0.12866491 -0.05280111 -0.23819944 -0.22213732 0.016321262
3 -0.58320993 0.10715053 0.5444163 -0.044912457 0.0023274522 0.11670339 -0.21736479 0.44646737 0.11618802 0.036240965 0.14895602 -0.24432871 -0.23141995 -0.2842262 0.46566358 0.4439972 -0.3545472 0.234773 -0.20675229 -0.25223765 0.17619894 0.081817955 -0.33508697 0.18698798 -0.03421038 0.09720339 0.12114131 -0.08283596 -0.13208014 0.078490876 0.08118352 -0.1867777 0.0119187655 0.053388435 0.13016576 -0.2279686 0.022332985 0.14367132 0.47747368 -0.12276027 0.01804262 0.2932332 -0.21845588 -0.40645394 -0.3335422 0.21502729 0.12441809 0.017546196 0.18343832 -0.15643117 -0.11699771 -0.33652228 -0.064854816 0.14437068 0.16147308 0.18355174 0.31736225 0.04381684 -0.012955538 0.3030367 0.37815577 0.014694192 -0.26792097 0.036498167 0.07108142 -0.26113036 -0.14056906 0.06657366 0.14174795 0.3113874 -0.01388799 -0.16600142 0.16075939 -0.0452278 -0.45427194 0.5637453 0.19761316 -0.12635614 -0.12636639 -0.094503656 -0.26089215 -0.07951219 0.07957688 -0.3753637 0.28934634 -0.53732234 0.05542711 -0.750293 -0.17159042 -0.13178518 0.3683391 0.07656816 0.0601357 0.23695761 0.39141113 0.05420551 0.0030028168 0.3055605 0.060448624 0.0046477537 -0.13987418 0.24470732 0.061270166 -0.29637378 0.17644359 0.28475842 -0.0065246117 0.30569544 -0.233279 -0.095799945 -0.029231044 0.0826711 0.52884233 -0.3508279 0.003731243 -0.31558707 0.13696814 -0.19965255 0.21110876 0.18408537 0.2306592 -0.1824409 -0.13187222 0.17532463 0.16130221 0.119198054 0.18651389 -0.08010176
1654 -0.64745086 -0.11988074 0.30452546 0.118972264 0.0059602526 -0.50941795 -0.3057902 0.52884054 0.060461327 -0.091228865 0.33800435 -0.11577693 0.17168057 -0.18617004 0.45419413 0.08399718 -0.23185077 0.29915836 -0.18627301 -0.080455035 0.104994155 0.2377652 -0.4196375 0.22712722 -0.16991338 -0.17153144 -0.13456357 -0.0918912 -0.14666036 0.4052312 0.19932023 -0.17529486 -0.052820615 0.07057691 -0.27016178 -0.5329212 -0.15884383 -0.12920438 0.5424638 -0.020148976 0.16426599 0.2956851 -0.39215106 -0.032521233 0.013375514 0.043118674 -0.1254744 0.01745508 0.121542335 -0.094226874 0.0102164615 -0.22715718 -0.080707915 0.24550141 0.042020533 0.05651182 0.34456253 0.11739898 -0.014383714 -0.041383136 0.34644622 -0.18379277 -0.3733758 -0.26329008 0.1614816 0.0540402 0.14790826 0.08753374 0.13918065 0.14002247 0.11847518 -0.21499524 0.25113603 0.045570143 -0.44449845 0.5785703 0.012732907 -0.078735195 -0.08031666 -0.17311284 -0.35452953 -0.20225553 -0.14244261 -0.12117472 0.47758153 -0.44599125 0.020467946 -0.6591112 -0.47259817 -0.02167455 0.23503187 0.082960315 0.2832793 0.17842242 0.14401458 0.32634044 0.22236992 0.28332135 0.24940301 0.21676928 0.18348148 0.14913237 -0.017432699 -0.31717277 0.17811634 0.13644381 0.009847643 0.022701446 -0.052094694 -0.11898775 0.29883972 -0.06884806 0.29541516 -0.2931205 0.19630422 -0.11359908 0.09961079 -0.3719772 0.19131042 0.13025677 0.45180875 -0.29195902 -0.20509964 0.1855089 0.08510807 -0.082352534 0.052640095 0.07449786
